svm_type c_svc
kernel_type rbf
gamma 0.03125
nr_class 2
total_sv 228
rho -81.180115083533821
label 1 0
nr_sv 116 112
SV
2048 1:-0.093666191 2:-0.91684816 3:-1.1156646 4:-1.5579387 5:-1.7113051 6:-1.5120172 
2048 1:-0.093666191 2:1.2562928 3:-0.24289248 4:-0.24396173 5:0.0084266858 6:-0.62924211 
828.93544839639446 1:-0.093666191 2:0.16972231 3:1.0662657 4:0.63202294 5:0.86829259 6:1.5776957 
2048 1:-2.2080272 2:-0.91684816 3:0.62987964 4:-0.68195406 5:0.43835964 6:-1.5120172 
2048 1:0.96351429 2:0.16972231 3:-0.24289248 4:-0.68195406 5:0.0084266858 6:-0.18785455 
2048 1:0.96351429 2:-0.91684816 3:-0.24289248 4:-1.1199464 5:0.0084266858 6:-0.62924211 
301.07856823370548 1:0.96351429 2:-0.91684816 3:-0.24289248 4:0.63202294 5:-0.42150627 6:1.5776957 
2048 1:0.96351429 2:0.16972231 3:0.19349358 4:-1.5579387 5:0.43835964 6:-1.5120172 
2048 1:-1.1508467 2:0.16972231 3:1.0662657 4:-1.5579387 5:0.0084266858 6:-1.5120172 
2048 1:-2.2080272 2:-0.91684816 3:-1.1156646 4:-1.1199464 5:-0.85143922 6:-1.0706297 
1169.7854193138246 1:0.96351429 2:-0.91684816 3:-1.5520507 4:-0.68195406 5:-0.85143922 6:-0.62924211 
2048 1:0.96351429 2:1.2562928 3:0.19349358 4:-0.24396173 5:0.43835964 6:-0.18785455 
1155.7493788109148 1:-1.1508467 2:-0.91684816 3:1.0662657 4:-0.68195406 5:0.0084266858 6:-0.62924211 
1562.2682355523918 1:-2.2080272 2:-0.91684816 3:1.0662657 4:0.63202294 5:0.86829259 6:-0.18785455 
2048 1:-0.093666191 2:1.2562928 3:-0.24289248 4:-0.24396173 5:0.0084266858 6:-0.18785455 
571.96622081317616 1:-0.093666191 2:1.2562928 3:1.5026518 4:-0.24396173 5:1.2982255 6:-1.0706297 
879.79157574289491 1:-0.093666191 2:-0.91684816 3:-0.67927854 4:0.63202294 5:-0.85143922 6:1.5776957 
2048 1:-0.093666191 2:0.16972231 3:-1.1156646 4:-0.68195406 5:-0.85143922 6:-0.18785455 
117.30239554915461 1:0.96351429 2:0.16972231 3:0.62987964 4:-1.1199464 5:1.2982255 6:-1.0706297 
1492.4769155385952 1:0.96351429 2:-0.91684816 3:-1.5520507 4:0.1940306 5:-1.7113051 6:-0.62924211 
533.06552044419857 1:0.96351429 2:-0.91684816 3:1.0662657 4:0.1940306 5:0.86829259 6:-0.62924211 
2048 1:0.96351429 2:0.16972231 3:-0.67927854 4:-1.1199464 5:-1.2813722 6:-0.62924211 
2048 1:-1.1508467 2:0.16972231 3:-0.67927854 4:-1.5579387 5:-0.42150627 6:-1.0706297 
1787.8653189558504 1:-0.093666191 2:-0.91684816 3:0.19349358 4:-0.68195406 5:-0.85143922 6:-0.62924211 
510.48290708044169 1:0.96351429 2:0.16972231 3:-1.5520507 4:0.1940306 5:-0.85143922 6:0.25353302 
2048 1:-1.1508467 2:-0.91684816 3:0.62987964 4:-0.68195406 5:0.43835964 6:-1.5120172 
1059.675054082079 1:-0.093666191 2:0.16972231 3:-1.1156646 4:1.0700153 5:-0.42150627 6:1.1363081 
1330.9946963188468 1:0.96351429 2:1.2562928 3:1.0662657 4:-1.5579387 5:0.86829259 6:-0.62924211 
2048 1:0.96351429 2:2.3428632 3:0.19349358 4:-0.68195406 5:0.43835964 6:-0.18785455 
1796.2682607549884 1:-1.1508467 2:-0.91684816 3:-1.1156646 4:1.0700153 5:-1.2813722 6:0.25353302 
2048 1:0.96351429 2:-0.91684816 3:-0.67927854 4:-1.1199464 5:-1.2813722 6:-0.62924211 
1854.7750393922668 1:0.96351429 2:-0.91684816 3:0.62987964 4:0.63202294 5:1.2982255 6:0.69492058 
2048 1:0.96351429 2:1.2562928 3:-0.67927854 4:-0.24396173 5:-0.42150627 6:0.25353302 
2048 1:0.96351429 2:2.3428632 3:0.19349358 4:-0.68195406 5:-0.42150627 6:-1.0706297 
538.7792660219684 1:-2.2080272 2:-0.91684816 3:1.5026518 4:0.63202294 5:0.43835964 6:0.69492058 
973.68294953098132 1:-0.093666191 2:0.16972231 3:-0.24289248 4:1.0700153 5:-1.2813722 6:1.1363081 
1338.9239195900007 1:-0.093666191 2:-0.91684816 3:1.0662657 4:-1.1199464 5:0.86829259 6:-0.18785455 
2048 1:0.96351429 2:2.3428632 3:0.62987964 4:-1.5579387 5:0.43835964 6:-0.62924211 
2048 1:-0.093666191 2:-0.91684816 3:-0.67927854 4:-1.1199464 5:-1.7113051 6:-1.0706297 
397.5508254241841 1:0.96351429 2:1.2562928 3:-0.67927854 4:0.1940306 5:-1.7113051 6:0.25353302 
1194.2503034163637 1:0.96351429 2:0.16972231 3:-0.24289248 4:0.63202294 5:-1.2813722 6:0.69492058 
2048 1:-1.1508467 2:-0.91684816 3:-0.24289248 4:-0.68195406 5:-1.2813722 6:-0.62924211 
1297.6600822171665 1:0.96351429 2:-0.91684816 3:1.5026518 4:-1.5579387 5:0.43835964 6:-1.5120172 
2048 1:0.96351429 2:2.3428632 3:-0.24289248 4:-0.68195406 5:-0.42150627 6:-1.0706297 
2048 1:-0.093666191 2:-0.91684816 3:-0.24289248 4:-1.5579387 5:0.0084266858 6:-1.0706297 
333.41639681106489 1:0.96351429 2:1.2562928 3:-0.67927854 4:0.63202294 5:-0.85143922 6:1.5776957 
1261.4994757716727 1:-0.093666191 2:1.2562928 3:-0.24289248 4:-1.1199464 5:0.0084266858 6:-1.5120172 
844.09048818322537 1:-0.093666191 2:-0.91684816 3:-1.5520507 4:-0.68195406 5:-1.7113051 6:-1.5120172 
613.91985664783294 1:0.96351429 2:1.2562928 3:-0.24289248 4:-1.5579387 5:-1.2813722 6:-1.5120172 
1591.594846207945 1:0.96351429 2:-0.91684816 3:-1.5520507 4:-1.1199464 5:-1.7113051 6:-0.18785455 
2048 1:-0.093666191 2:-0.91684816 3:-0.67927854 4:-0.68195406 5:-1.7113051 6:-0.62924211 
766.04199946993833 1:-1.1508467 2:-0.91684816 3:-0.67927854 4:0.1940306 5:0.0084266858 6:0.25353302 
2048 1:-0.093666191 2:0.16972231 3:1.0662657 4:-1.5579387 5:0.86829259 6:-0.62924211 
761.83266743448121 1:-0.093666191 2:-0.91684816 3:-0.24289248 4:-0.24396173 5:-1.2813722 6:-0.18785455 
2048 1:-0.093666191 2:0.16972231 3:-1.1156646 4:-0.68195406 5:-1.7113051 6:-0.18785455 
2048 1:-2.2080272 2:-0.91684816 3:-0.67927854 4:-0.24396173 5:0.0084266858 6:-0.18785455 
203.1590656341555 1:-1.1508467 2:0.16972231 3:1.0662657 4:-0.68195406 5:0.0084266858 6:-0.62924211 
2048 1:-0.093666191 2:-0.91684816 3:-1.1156646 4:0.63202294 5:-0.42150627 6:0.69492058 
2048 1:-1.1508467 2:-0.91684816 3:-0.67927854 4:-1.5579387 5:-0.42150627 6:-1.5120172 
2048 1:-0.093666191 2:0.16972231 3:-1.1156646 4:-0.68195406 5:-1.2813722 6:-0.18785455 
2048 1:0.96351429 2:2.3428632 3:-0.67927854 4:-0.68195406 5:-0.85143922 6:-1.0706297 
2048 1:0.96351429 2:-0.91684816 3:-0.67927854 4:0.63202294 5:-1.7113051 6:0.69492058 
2048 1:-0.093666191 2:1.2562928 3:-1.1156646 4:-1.1199464 5:-1.2813722 6:-1.5120172 
1492.6265886073645 1:0.96351429 2:0.16972231 3:-1.5520507 4:-0.68195406 5:-1.7113051 6:-1.5120172 
1608.3731412008117 1:0.96351429 2:2.3428632 3:1.5026518 4:-0.24396173 5:1.2982255 6:-1.0706297 
49.984195967908626 1:0.96351429 2:-0.91684816 3:-0.67927854 4:1.0700153 5:-1.7113051 6:1.1363081 
189.65332524299592 1:0.96351429 2:0.16972231 3:-1.1156646 4:0.1940306 5:-1.2813722 6:1.1363081 
1591.1631203873856 1:0.96351429 2:-0.91684816 3:1.0662657 4:-0.68195406 5:0.86829259 6:-1.5120172 
2048 1:-0.093666191 2:-0.91684816 3:-1.1156646 4:0.1940306 5:-1.2813722 6:1.1363081 
2048 1:0.96351429 2:-0.91684816 3:0.19349358 4:-1.5579387 5:0.43835964 6:-1.0706297 
786.00692353204147 1:0.96351429 2:1.2562928 3:-0.24289248 4:1.5080076 5:-0.42150627 6:0.69492058 
724.42388768125113 1:0.96351429 2:-0.91684816 3:1.0662657 4:0.63202294 5:0.0084266858 6:0.69492058 
496.14639900253508 1:-1.1508467 2:-0.91684816 3:0.62987964 4:-1.5579387 5:1.2982255 6:-1.5120172 
810.58241429452994 1:0.96351429 2:-0.91684816 3:1.5026518 4:-0.68195406 5:1.2982255 6:0.25353302 
665.71794221148582 1:-2.2080272 2:-0.91684816 3:0.62987964 4:-1.5579387 5:1.2982255 6:-1.5120172 
2048 1:0.96351429 2:-0.91684816 3:-1.5520507 4:1.0700153 5:-0.85143922 6:1.1363081 
161.29318561702397 1:-1.1508467 2:-0.91684816 3:-0.24289248 4:1.5080076 5:-1.2813722 6:1.5776957 
637.88960630347879 1:0.96351429 2:1.2562928 3:-1.5520507 4:1.0700153 5:-1.7113051 6:0.25353302 
2048 1:-2.2080272 2:-0.91684816 3:0.62987964 4:-1.1199464 5:0.43835964 6:-0.18785455 
1645.1849229662862 1:-0.093666191 2:0.16972231 3:1.5026518 4:-0.68195406 5:0.43835964 6:-0.62924211 
218.54971801718719 1:-1.1508467 2:-0.91684816 3:-0.24289248 4:0.63202294 5:-0.42150627 6:-0.18785455 
1219.7001850878778 1:0.96351429 2:1.2562928 3:1.5026518 4:0.63202294 5:0.43835964 6:0.69492058 
883.80949686840222 1:-1.1508467 2:-0.91684816 3:-1.1156646 4:0.63202294 5:-1.2813722 6:1.5776957 
1203.7455552731069 1:0.96351429 2:1.2562928 3:1.5026518 4:-1.5579387 5:0.43835964 6:-1.5120172 
2048 1:0.96351429 2:2.3428632 3:0.62987964 4:-1.1199464 5:1.2982255 6:-1.0706297 
2048 1:0.96351429 2:1.2562928 3:0.19349358 4:-1.1199464 5:0.43835964 6:-1.5120172 
214.87295381847164 1:-1.1508467 2:-0.91684816 3:0.62987964 4:1.5080076 5:0.43835964 6:0.69492058 
2048 1:0.96351429 2:2.3428632 3:0.19349358 4:0.1940306 5:0.43835964 6:0.25353302 
2048 1:0.96351429 2:1.2562928 3:0.62987964 4:1.0700153 5:1.2982255 6:1.1363081 
1725.7089203625901 1:-1.1508467 2:-0.91684816 3:-0.24289248 4:-0.24396173 5:0.43835964 6:-0.18785455 
1263.3359033891395 1:0.96351429 2:2.3428632 3:-1.5520507 4:-1.5579387 5:-0.85143922 6:-1.5120172 
2048 1:-0.093666191 2:-0.91684816 3:1.0662657 4:-1.1199464 5:0.0084266858 6:-1.0706297 
2048 1:-0.093666191 2:-0.91684816 3:-0.67927854 4:-0.24396173 5:-1.7113051 6:-0.18785455 
2048 1:0.96351429 2:0.16972231 3:-0.67927854 4:-1.5579387 5:-1.2813722 6:-1.5120172 
2048 1:0.96351429 2:1.2562928 3:0.19349358 4:-1.1199464 5:-0.42150627 6:-1.5120172 
594.84344567225821 1:0.96351429 2:0.16972231 3:-0.24289248 4:1.5080076 5:-0.42150627 6:0.69492058 
1120.9070272129441 1:0.96351429 2:0.16972231 3:1.5026518 4:-0.68195406 5:1.2982255 6:-1.5120172 
1565.8289575704598 1:0.96351429 2:2.3428632 3:1.5026518 4:-0.24396173 5:0.43835964 6:-0.18785455 
1860.7868325601041 1:0.96351429 2:0.16972231 3:-1.5520507 4:0.63202294 5:-1.7113051 6:-0.18785455 
2048 1:0.96351429 2:1.2562928 3:-1.5520507 4:-0.68195406 5:-1.7113051 6:0.25353302 
2048 1:-1.1508467 2:0.16972231 3:1.0662657 4:-1.1199464 5:0.0084266858 6:-1.0706297 
2048 1:0.96351429 2:-0.91684816 3:-0.24289248 4:-1.1199464 5:-0.85143922 6:-0.62924211 
1722.4150718384483 1:0.96351429 2:-0.91684816 3:1.0662657 4:-0.24396173 5:0.0084266858 6:-0.18785455 
425.46661190542841 1:-2.2080272 2:-0.91684816 3:0.19349358 4:-1.5579387 5:-0.85143922 6:-1.5120172 
1793.5089202290123 1:-1.1508467 2:0.16972231 3:0.62987964 4:-1.1199464 5:1.2982255 6:-1.0706297 
1075.0662775095193 1:-0.093666191 2:-0.91684816 3:1.0662657 4:0.63202294 5:0.86829259 6:1.5776957 
1685.0940496627377 1:0.96351429 2:1.2562928 3:0.62987964 4:1.5080076 5:0.43835964 6:0.69492058 
646.36430461134751 1:0.96351429 2:0.16972231 3:1.5026518 4:-0.24396173 5:1.2982255 6:-1.0706297 
686.75252852820063 1:0.96351429 2:2.3428632 3:1.5026518 4:0.1940306 5:1.2982255 6:1.1363081 
2048 1:0.96351429 2:1.2562928 3:-0.67927854 4:-0.24396173 5:-1.2813722 6:0.25353302 
1438.0866651439364 1:-1.1508467 2:-0.91684816 3:0.62987964 4:-1.5579387 5:0.43835964 6:-0.62924211 
2048 1:-2.2080272 2:-0.91684816 3:0.62987964 4:-0.24396173 5:-0.42150627 6:-0.18785455 
2048 1:0.96351429 2:0.16972231 3:-0.67927854 4:-1.1199464 5:-1.2813722 6:-1.0706297 
249.07199950223827 1:-0.093666191 2:-0.91684816 3:1.5026518 4:1.0700153 5:0.43835964 6:1.1363081 
2048 1:0.96351429 2:2.3428632 3:0.62987964 4:-1.5579387 5:-0.42150627 6:-1.5120172 
1746.3754677571455 1:-0.093666191 2:0.16972231 3:1.0662657 4:1.5080076 5:0.86829259 6:0.69492058 
-1341.3824573283828 1:0.96351429 2:0.16972231 3:-1.1156646 4:-1.1199464 5:-1.2813722 6:-1.5120172 
-1956.5882877942097 1:0.96351429 2:0.16972231 3:-1.1156646 4:-0.68195406 5:-1.7113051 6:-0.18785455 
-1201.5575952260781 1:-2.2080272 2:-0.91684816 3:0.19349358 4:-1.5579387 5:0.43835964 6:-1.0706297 
-1777.5934488796879 1:0.96351429 2:2.3428632 3:-0.24289248 4:-1.5579387 5:-0.85143922 6:-1.0706297 
-2048 1:0.96351429 2:-0.91684816 3:0.62987964 4:-1.1199464 5:0.0084266858 6:-0.62924211 
-2048 1:0.96351429 2:0.16972231 3:0.62987964 4:-0.68195406 5:0.0084266858 6:-0.18785455 
-2048 1:-0.093666191 2:0.16972231 3:-1.1156646 4:-0.24396173 5:-1.7113051 6:-0.62924211 
-2048 1:-1.1508467 2:0.16972231 3:-0.24289248 4:-1.1199464 5:0.0084266858 6:-1.5120172 
-2005.5983567974124 1:0.96351429 2:-0.91684816 3:-1.5520507 4:1.0700153 5:-1.2813722 6:0.69492058 
-1967.4787070611412 1:0.96351429 2:-0.91684816 3:-0.67927854 4:0.1940306 5:-1.2813722 6:-0.18785455 
-1082.4501015793703 1:0.96351429 2:-0.91684816 3:1.5026518 4:0.63202294 5:0.86829259 6:0.25353302 
-2048 1:-0.093666191 2:1.2562928 3:0.62987964 4:-0.68195406 5:0.86829259 6:-1.0706297 
-1129.3523690086629 1:0.96351429 2:-0.91684816 3:-1.1156646 4:1.0700153 5:-0.85143922 6:1.5776957 
-757.07774033701423 1:-0.093666191 2:0.16972231 3:1.5026518 4:-1.1199464 5:0.86829259 6:-1.5120172 
-2048 1:0.96351429 2:2.3428632 3:0.62987964 4:-1.1199464 5:0.86829259 6:-1.5120172 
-273.88519545820799 1:-1.1508467 2:-0.91684816 3:1.0662657 4:0.1940306 5:0.43835964 6:0.69492058 
-994.19816140488774 1:-2.2080272 2:-0.91684816 3:1.0662657 4:0.1940306 5:0.43835964 6:-0.18785455 
-1211.0192047034973 1:-1.1508467 2:-0.91684816 3:-0.67927854 4:-0.68195406 5:-0.42150627 6:-1.0706297 
-1595.5892210575362 1:0.96351429 2:1.2562928 3:1.0662657 4:-1.5579387 5:0.43835964 6:-1.0706297 
-539.18714470675286 1:-0.093666191 2:0.16972231 3:1.0662657 4:1.5080076 5:0.43835964 6:1.1363081 
-513.84119866772051 1:0.96351429 2:0.16972231 3:1.0662657 4:-0.68195406 5:0.43835964 6:-1.0706297 
-12.746976949357881 1:-0.093666191 2:-0.91684816 3:0.19349358 4:-0.68195406 5:0.43835964 6:-0.18785455 
-908.32559907739267 1:0.96351429 2:2.3428632 3:-0.24289248 4:-1.5579387 5:0.0084266858 6:-1.5120172 
-1685.9194154585396 1:-0.093666191 2:0.16972231 3:-1.5520507 4:-1.1199464 5:-1.7113051 6:-1.5120172 
-122.07362897659546 1:0.96351429 2:2.3428632 3:1.5026518 4:1.5080076 5:1.2982255 6:1.1363081 
-2048 1:0.96351429 2:2.3428632 3:-0.24289248 4:-1.1199464 5:-0.42150627 6:-1.5120172 
-2048 1:0.96351429 2:1.2562928 3:-1.1156646 4:-0.24396173 5:-1.2813722 6:-0.62924211 
-2048 1:0.96351429 2:1.2562928 3:-0.67927854 4:1.0700153 5:-0.42150627 6:0.69492058 
-2048 1:-2.2080272 2:-0.91684816 3:-0.67927854 4:-0.68195406 5:-0.42150627 6:-1.0706297 
-2048 1:0.96351429 2:2.3428632 3:1.0662657 4:-0.24396173 5:1.2982255 6:0.25353302 
-359.00403061667669 1:0.96351429 2:-0.91684816 3:1.0662657 4:1.0700153 5:1.2982255 6:1.5776957 
-2048 1:0.96351429 2:-0.91684816 3:-1.1156646 4:-0.24396173 5:-0.85143922 6:-0.62924211 
-2048 1:0.96351429 2:2.3428632 3:-0.67927854 4:-1.5579387 5:-0.42150627 6:-1.0706297 
-2048 1:-0.093666191 2:-0.91684816 3:-0.24289248 4:-1.1199464 5:-1.7113051 6:-1.5120172 
-2048 1:0.96351429 2:0.16972231 3:0.62987964 4:-0.68195406 5:0.86829259 6:-1.0706297 
-1168.4954394750418 1:-0.093666191 2:-0.91684816 3:-1.5520507 4:-1.5579387 5:-1.7113051 6:-1.0706297 
-2048 1:-0.093666191 2:-0.91684816 3:0.62987964 4:-1.1199464 5:-1.7113051 6:-1.5120172 
-914.65325454615459 1:0.96351429 2:1.2562928 3:1.0662657 4:-0.68195406 5:0.43835964 6:-1.0706297 
-2031.3635193864336 1:0.96351429 2:1.2562928 3:-1.1156646 4:0.1940306 5:-1.7113051 6:0.69492058 
-943.80535354400956 1:0.96351429 2:1.2562928 3:1.5026518 4:-1.1199464 5:0.86829259 6:-1.5120172 
-1295.6239409602813 1:-1.1508467 2:-0.91684816 3:-0.67927854 4:0.1940306 5:-1.2813722 6:0.69492058 
-2048 1:0.96351429 2:1.2562928 3:-0.24289248 4:0.1940306 5:0.0084266858 6:0.69492058 
-1719.2077238411953 1:0.96351429 2:1.2562928 3:-0.24289248 4:1.0700153 5:0.0084266858 6:0.69492058 
-2048 1:-0.093666191 2:0.16972231 3:-1.5520507 4:-0.68195406 5:-1.2813722 6:-0.18785455 
-2048 1:-0.093666191 2:-0.91684816 3:0.19349358 4:-0.68195406 5:-0.42150627 6:-0.18785455 
-336.50980998606417 1:0.96351429 2:-0.91684816 3:1.5026518 4:1.5080076 5:0.86829259 6:1.1363081 
-1473.5400194179147 1:-2.2080272 2:-0.91684816 3:1.5026518 4:-1.1199464 5:0.86829259 6:-0.62924211 
-2048 1:-0.093666191 2:-0.91684816 3:-0.67927854 4:-1.1199464 5:-1.7113051 6:-1.5120172 
-1098.4438237752206 1:-1.1508467 2:-0.91684816 3:-1.1156646 4:1.0700153 5:-0.85143922 6:1.5776957 
-2048 1:0.96351429 2:1.2562928 3:0.19349358 4:0.1940306 5:0.43835964 6:-0.18785455 
-69.197775944031093 1:-0.093666191 2:0.16972231 3:-0.67927854 4:0.1940306 5:-1.2813722 6:-0.18785455 
-441.19495057851145 1:-0.093666191 2:1.2562928 3:0.62987964 4:-0.24396173 5:0.86829259 6:0.25353302 
-951.44224522730462 1:0.96351429 2:-0.91684816 3:0.19349358 4:-0.24396173 5:0.43835964 6:0.25353302 
-1314.4565246428963 1:0.96351429 2:-0.91684816 3:-0.24289248 4:0.1940306 5:-0.85143922 6:0.69492058 
-2048 1:0.96351429 2:2.3428632 3:0.62987964 4:-0.68195406 5:0.0084266858 6:-1.0706297 
-2048 1:-0.093666191 2:-0.91684816 3:-0.24289248 4:-0.68195406 5:0.0084266858 6:-0.18785455 
-2048 1:0.96351429 2:-0.91684816 3:-0.67927854 4:-0.68195406 5:-1.2813722 6:-0.18785455 
-2048 1:-0.093666191 2:-0.91684816 3:0.19349358 4:-1.1199464 5:0.43835964 6:-0.62924211 
-1556.2981756485037 1:-0.093666191 2:-0.91684816 3:0.19349358 4:1.0700153 5:0.43835964 6:1.5776957 
-2048 1:-1.1508467 2:-0.91684816 3:-1.1156646 4:-0.68195406 5:-0.85143922 6:-0.18785455 
-2048 1:0.96351429 2:2.3428632 3:1.0662657 4:0.1940306 5:0.43835964 6:-0.18785455 
-962.48853733043734 1:0.96351429 2:2.3428632 3:1.0662657 4:1.0700153 5:1.2982255 6:1.5776957 
-2048 1:0.96351429 2:-0.91684816 3:1.0662657 4:-1.5579387 5:0.43835964 6:-1.0706297 
-240.91839182251383 1:-2.2080272 2:-0.91684816 3:1.0662657 4:1.0700153 5:1.2982255 6:0.69492058 
-206.00862397338673 1:-1.1508467 2:-0.91684816 3:-1.1156646 4:1.5080076 5:-0.85143922 6:1.1363081 
-188.6554979109147 1:-1.1508467 2:0.16972231 3:0.19349358 4:0.1940306 5:0.43835964 6:0.69492058 
-2048 1:0.96351429 2:-0.91684816 3:0.62987964 4:-1.1199464 5:0.86829259 6:-1.5120172 
-2048 1:0.96351429 2:0.16972231 3:1.0662657 4:1.5080076 5:1.2982255 6:1.1363081 
-354.96617657959058 1:-0.093666191 2:-0.91684816 3:-1.5520507 4:1.0700153 5:-1.2813722 6:1.5776957 
-2048 1:-0.093666191 2:-0.91684816 3:-1.1156646 4:1.5080076 5:-1.7113051 6:1.1363081 
-2048 1:-2.2080272 2:-0.91684816 3:0.19349358 4:-1.5579387 5:-0.42150627 6:-1.0706297 
-2048 1:0.96351429 2:1.2562928 3:0.19349358 4:0.1940306 5:-0.42150627 6:0.69492058 
-2048 1:-0.093666191 2:0.16972231 3:0.62987964 4:-1.5579387 5:0.0084266858 6:-1.0706297 
-2048 1:-0.093666191 2:1.2562928 3:0.62987964 4:-1.1199464 5:0.0084266858 6:-0.62924211 
-2048 1:-1.1508467 2:-0.91684816 3:-0.67927854 4:-0.24396173 5:-1.2813722 6:0.25353302 
-84.385753982056912 1:-0.093666191 2:1.2562928 3:1.5026518 4:1.0700153 5:0.86829259 6:0.69492058 
-2048 1:-2.2080272 2:-0.91684816 3:0.62987964 4:0.63202294 5:0.0084266858 6:0.25353302 
-2048 1:0.96351429 2:2.3428632 3:-1.1156646 4:-0.68195406 5:-0.85143922 6:-1.0706297 
-782.89226550436513 1:-1.1508467 2:-0.91684816 3:-0.24289248 4:-0.68195406 5:-0.85143922 6:-0.18785455 
-2048 1:-0.093666191 2:0.16972231 3:-1.1156646 4:-0.24396173 5:-0.85143922 6:0.25353302 
-1264.6202477807831 1:0.96351429 2:2.3428632 3:1.5026518 4:-0.24396173 5:0.86829259 6:-0.62924211 
-956.18735070678713 1:-0.093666191 2:1.2562928 3:0.62987964 4:-1.5579387 5:0.86829259 6:-1.0706297 
-1424.9508956693992 1:-0.093666191 2:1.2562928 3:0.62987964 4:0.63202294 5:0.0084266858 6:0.25353302 
-2048 1:-1.1508467 2:-0.91684816 3:0.19349358 4:-1.1199464 5:0.43835964 6:-1.5120172 
-2048 1:0.96351429 2:0.16972231 3:1.5026518 4:-1.1199464 5:0.86829259 6:-1.5120172 
-2048 1:0.96351429 2:-0.91684816 3:0.62987964 4:-1.5579387 5:0.86829259 6:-1.0706297 
-212.87902850341402 1:0.96351429 2:2.3428632 3:1.0662657 4:-1.1199464 5:1.2982255 6:-0.62924211 
-2048 1:-0.093666191 2:-0.91684816 3:-0.67927854 4:-0.68195406 5:-1.2813722 6:-0.18785455 
-2048 1:0.96351429 2:-0.91684816 3:-1.1156646 4:-0.68195406 5:-1.7113051 6:-0.18785455 
-1044.577297730325 1:-0.093666191 2:0.16972231 3:-1.5520507 4:-0.24396173 5:-1.2813722 6:0.25353302 
-2048 1:0.96351429 2:1.2562928 3:-1.1156646 4:0.1940306 5:-1.7113051 6:-0.18785455 
-2048 1:0.96351429 2:-0.91684816 3:-1.1156646 4:-0.24396173 5:-1.7113051 6:0.25353302 
-1408.3276208173395 1:-0.093666191 2:-0.91684816 3:1.5026518 4:0.1940306 5:0.86829259 6:0.69492058 
-2048 1:0.96351429 2:0.16972231 3:-1.5520507 4:-1.5579387 5:-1.2813722 6:-1.0706297 
-2048 1:-1.1508467 2:-0.91684816 3:1.5026518 4:0.1940306 5:0.86829259 6:-0.18785455 
-718.27463344691819 1:-0.093666191 2:-0.91684816 3:1.5026518 4:-1.5579387 5:0.86829259 6:-1.0706297 
-2048 1:-0.093666191 2:0.16972231 3:-0.24289248 4:-0.24396173 5:0.0084266858 6:0.25353302 
-2048 1:0.96351429 2:1.2562928 3:-0.24289248 4:-1.5579387 5:-0.85143922 6:-1.5120172 
-234.50576866602529 1:0.96351429 2:2.3428632 3:1.5026518 4:-1.1199464 5:0.86829259 6:-0.62924211 
-515.83719439867264 1:-1.1508467 2:0.16972231 3:1.0662657 4:1.0700153 5:1.2982255 6:0.69492058 
-450.15195179160264 1:-2.2080272 2:-0.91684816 3:1.5026518 4:-1.1199464 5:1.2982255 6:-1.5120172 
-2048 1:0.96351429 2:1.2562928 3:-0.67927854 4:-1.5579387 5:-1.2813722 6:-1.0706297 
-2048 1:-0.093666191 2:0.16972231 3:-0.67927854 4:0.1940306 5:-0.42150627 6:-0.18785455 
-2048 1:-1.1508467 2:-0.91684816 3:0.19349358 4:-1.5579387 5:0.43835964 6:-1.0706297 
-2048 1:0.96351429 2:-0.91684816 3:-1.5520507 4:-1.5579387 5:-1.2813722 6:-1.5120172 
-1233.818100924731 1:-2.2080272 2:-0.91684816 3:1.0662657 4:-0.68195406 5:1.2982255 6:-1.0706297 
-2048 1:-1.1508467 2:0.16972231 3:0.62987964 4:-1.1199464 5:0.0084266858 6:-1.5120172 
-2048 1:-2.2080272 2:-0.91684816 3:-0.67927854 4:-0.24396173 5:-0.42150627 6:-0.62924211 
-972.22895791180906 1:0.96351429 2:0.16972231 3:0.62987964 4:-0.68195406 5:0.86829259 6:-0.18785455 
-974.44394936258675 1:-1.1508467 2:0.16972231 3:-0.24289248 4:-1.5579387 5:-0.42150627 6:-1.0706297 
-2048 1:-1.1508467 2:0.16972231 3:0.62987964 4:-1.5579387 5:0.0084266858 6:-1.0706297 
-2048 1:0.96351429 2:2.3428632 3:0.62987964 4:-1.1199464 5:0.86829259 6:-0.62924211 
