svm_type c_svc
kernel_type rbf
gamma 2
nr_class 2
total_sv 4998
rho -0.80964925546222422
label 1 -1
nr_sv 2790 2208
SV
0.5 1:-0.32796069 2:-0.40748497 3:-0.50588909 4:-0.069716164 5:0.020889532 6:0.096419339 
0.5 1:0.16565807 2:0.34979278 3:-0.34587877 4:-1.1638317 5:-1.0840412 6:-1.1018381 
0.5 1:0.4585274 2:0.64197411 3:0.67923496 4:-1.5156911 5:-1.6972848 6:-1.8173206 
0.5 1:-0.51062025 2:-0.17988125 3:-0.17775265 4:-0.20738321 5:-0.074831146 6:-0.12518053 
0.5 1:-0.77947007 2:-0.76971202 3:-0.31404251 4:0.84811647 5:0.60231571 6:0.74205185 
0.5 1:-0.601792 2:-0.46151533 3:-0.70965441 4:-0.43845036 5:-0.66975134 6:-0.28330904 
0.5 1:-0.2906522 2:-0.41375348 3:-0.39012909 4:0.65079894 5:0.70695348 6:0.72649822 
0.5 1:-0.46963961 2:-0.43596255 3:-0.06807429 4:0.53824789 5:0.60373613 6:0.5348273 
0.5 1:1.069023 2:0.91597826 3:0.50242876 4:-1.0498679 5:-1.041902 6:-0.83954749 
0.16959802114983563 1:0.30983526 2:1.3804314 3:2.4268856 4:-0.014853413 5:0.47471444 6:-0.25447985 
0.5 1:-0.77947007 2:-0.4640362 3:-0.49657506 4:1.8170445 5:1.0888103 6:0.6680543 
0.5 1:0.0073340582 2:-0.15837533 3:0.20266631 4:-0.37707315 5:-0.46450032 6:-0.10075034 
0.5 1:1.0355372 2:0.18440289 3:-0.1004191 4:-0.5466846 5:-0.44122118 6:-0.82650758 
0.5 1:-0.55854637 2:-0.35584832 3:0.017430807 4:0.28653853 5:0.13089334 6:-0.14748977 
0.5 1:-0.57551503 2:0.10017448 3:-0.27974016 4:-2.3412224 5:0.1689291 6:0.086600132 
0.5 1:-0.37618028 2:-0.59162055 3:-0.036147464 4:0.28591063 5:0.2769601 6:0.20207401 
0.5 1:-0.68434022 2:-0.76971202 3:-0.72267523 4:-0.43735154 5:-0.38740296 6:-0.49029793 
0.5 1:-0.37997283 2:-0.44368972 3:-0.28541077 4:-0.18367999 5:-0.20038069 6:-0.19744989 
0.5 1:-0.065868224 2:-0.17249817 3:-0.073138833 4:-0.64879682 5:-0.61214532 6:-0.64803367 
0.5 1:-0.15505341 2:-0.76971202 3:0.052541259 4:-0.51466171 5:-0.57347827 6:-0.72658733 
0.5 1:-0.3766092 2:-0.76341509 3:-0.35705282 4:0.48683858 5:0.52727007 6:0.4671926 
0.26348066059347891 1:-0.26665528 2:-0.47156888 3:0.21158325 4:0.092752927 5:-0.043266207 6:-0.35526419 
0.13224785636394651 1:-0.19875053 2:-0.24543878 3:0.79947433 4:-0.050094293 5:0.10319511 6:-2.3428288 
0.5 1:3.1517664 2:2.2509911 3:1.1168617 4:-0.44739794 5:-0.39340029 6:-0.13012941 
0.5 1:-0.77947007 2:-0.27093919 3:-0.48704508 4:-1.2022121 5:-1.2825846 6:-1.2764629 
0.2008609112960055 1:4.8022792 2:4.2905006 3:3.2080235 4:0.52302131 5:-0.40018676 6:0.96443725 
0.5 1:-0.67260137 2:-0.61595403 3:-0.44252308 4:0.052096411 5:-0.069938581 6:-0.0075071491 
0.5 1:-0.77782393 2:-0.12947885 3:-0.71493212 4:0.31871839 5:0.28366765 6:0.31841197 
0.09419004571354464 1:2.4316329 2:1.9056247 3:1.4072892 4:0.31251788 5:-0.38045867 6:-0.087082004 
0.5 1:-0.54854577 2:-0.76971202 3:-0.50763068 4:-0.48538588 5:-0.62256175 6:-0.52933909 
0.5 1:-0.15455676 2:-0.76971202 3:-0.14151365 4:0.16676662 5:0.12300211 6:0.12595551 
0.5 1:-0.4548908 2:0.055442161 3:-0.28316761 4:-0.13164279 5:-0.05747043 6:0.37135714 
0.5 1:-0.38867163 2:-0.33700539 3:-0.22322905 4:0.60347099 5:0.34955946 6:0.91125643 
0.5 1:0.1911675 2:0.22906041 3:0.0094194935 4:0.34579658 5:0.23521547 6:0.002547719 
0.2311569449154901 1:4.3266299 2:4.3866227 3:2.7257424 4:-1.0162752 5:-0.91627351 6:-1.1215551 
0.5 1:-0.13478883 2:-0.13594185 3:0.0045430419 4:0.24760873 5:0.16174807 6:0.29296059 
0.34293709004585404 1:-0.18196247 2:0.42025741 3:1.8480508 4:-0.12920968 5:-0.49724894 6:-0.42187769 
0.5 1:1.510735 2:0.79307659 3:1.2944342 4:-1.15873 5:-1.0658124 6:-1.3557236 
0.5 1:0.70414032 2:0.55520239 3:0.19542129 4:-0.99217956 5:-0.67701127 6:-0.39886147 
0.2228674785869188 1:1.5197648 2:-0.30535615 3:0.51044007 4:-0.47973478 5:-0.50600821 6:-0.35055097 
0.5 1:0.030435518 2:-0.25000178 3:-0.36920911 4:0.21189693 5:0.23308483 6:0.42744445 
0.5 1:-0.13989825 2:-0.095622917 3:1.1574755 4:0.13458676 5:0.04771973 6:0.34394191 
0.5 1:-0.77947007 2:-0.426859 3:-0.72227445 4:0.14675232 5:0.089306537 6:0.33867882 
0.061594627724039244 1:0.90799001 2:0.65386782 3:0.017152153 4:-0.66072692 5:-0.0924286 6:-0.38173677 
0.5 1:-0.056537341 2:0.012804333 3:0.081799969 4:0.44759484 5:0.62449008 6:0.70143961 
0.5 1:-0.16877131 2:-0.55207209 3:-0.2719657 4:0.54609663 5:-0.50687625 6:-0.1181107 
0.36577031482552369 1:0.50179561 2:0.25853287 3:0.16699855 4:1.2167722 5:1.0316778 6:1.4584612 
0.5 1:0.20305685 2:0.24551711 3:0.45366424 4:-0.60327408 5:-0.67795822 6:-0.85486545 
0.5 1:-0.050517416 2:-0.11766742 3:-0.17241642 4:0.40489765 5:-0.37903825 6:-0.5927319 
0.24168024215516851 1:-0.77947007 2:-0.23979114 3:-0.35003072 4:-0.17700855 5:0.50620047 6:0.94220657 
0.5 1:-0.48341019 2:-0.76971202 3:-0.5115388 4:0.20742314 5:-0.12999088 6:-0.068543341 
0.5 1:0.067307556 2:-0.0029043409 3:-0.01196723 4:-0.95340675 5:-0.6931883 6:-0.58707603 
0.5 1:-0.77947007 2:-0.76971202 3:-0.66238487 4:0.10130806 5:-0.020776188 6:0.045438016 
0.5 1:0.05820242 2:-0.41554876 3:-0.36394951 4:-0.1535408 5:0.040223057 6:0.040096367 
0.33337789628168901 1:0.19184474 2:1.1249036 3:1.3066253 4:-0.49048757 5:-0.10118787 6:-0.25471551 
0.5 1:-0.046521691 2:-0.31045025 3:-0.43479739 4:0.61045637 5:0.30260661 6:0.76098328 
0.5 1:-0.079006709 2:0.16211154 3:-0.18131246 4:-0.52996677 5:-0.34352769 6:-0.32729909 
0.44630336810296084 1:0.08371185 2:-0.0050736339 3:0.0750426 4:0.23873965 5:-0.021486399 6:1.0821106 
0.5 1:-0.34155067 2:-0.76911984 3:-0.37864156 4:0.4472024 5:0.38767412 6:0.47496941 
0.19666627890601718 1:0.95231171 2:-0.45431926 3:0.65756958 4:-0.2833591 5:-0.41020862 6:-0.26052848 
0.5 1:0.36123037 2:0.45848184 3:-0.034823856 4:0.074072906 5:-0.22894696 6:-0.18338879 
0.5 1:-0.77566774 2:-0.57854495 3:-0.7188966 4:0.3550581 5:0.27924856 6:0.43875618 
0.5 1:0.48162886 2:0.53650159 3:0.27678837 4:-0.31396921 5:-0.77162718 6:-0.75895143 
0.5 1:0.25415096 2:-0.0010342607 3:-0.51576738 4:-1.3821054 5:-1.2889765 6:-1.3689206 
0.33222623876447294 1:0.40923927 2:1.2580533 3:0.97788279 4:2.0096527 5:1.2405588 6:0.066411842 
0.41358063873732481 1:1.2124477 2:-0.76971202 3:0.89428648 4:-0.19286303 5:-0.15287546 6:-0.51347126 
0.089474340779203493 1:-0.086862711 2:0.29533605 3:1.4546604 4:0.37326719 5:-0.79640565 6:-0.84991657 
0.5 1:-0.47061785 2:-0.48139054 3:-0.47179572 4:0.066302645 5:0.052217734 6:-0.015676729 
0.5 1:-0.38669258 2:-0.18235724 3:-0.17671467 4:-0.83441972 5:-0.67906299 6:-0.2372766 
0.5 1:-0.77947007 2:-0.7675054 3:-0.49774541 4:-0.21507498 5:0.44725295 6:0.29248927 
0.5 1:0.69887289 2:0.5273756 3:-0.028073453 4:-1.1672851 5:-1.0268297 6:-1.2580028 
0.5 1:-0.26512772 2:-0.42206412 3:-0.41107693 4:0.31589284 5:0.30907743 6:0.48031106 
0.5 1:-0.5658681 2:-0.56589572 3:-0.26789735 4:0.65770584 5:0.47747638 6:0.89829507 
0.5 1:-0.38531552 2:-0.44434799 3:-0.28159321 4:0.6303137 5:0.81088104 6:1.003557 
0.18986578712052171 1:4.5361233 2:2.7686293 3:1.7714208 4:1.0265185 5:2.3390187 6:0.12509142 
0.5 1:-0.77925013 2:-0.36697155 3:-0.71865299 4:1.4658915 5:1.5115438 6:1.609677 
0.5 1:-0.072422417 2:-0.16913951 3:-0.3127816 4:0.88696778 5:0.82106074 6:0.57928867 
0.5 1:-0.63302789 2:-0.76871146 3:-0.42510021 4:0.28873617 5:0.28658741 6:0.27206532 
0.5 1:-0.42716152 2:-0.40245819 3:-0.45817649 4:-0.064692965 5:0.034304631 6:0.064526555 
0.5 1:-0.35588561 2:-0.76661689 3:-0.72214666 4:2.1655289 5:2.428742 6:2.0765999 
0.5 1:-0.62095794 2:-0.61033631 3:-0.56011523 4:0.79309675 5:0.94913548 6:0.85870403 
0.5 1:-0.77947007 2:-0.14790288 3:-0.72267523 4:-1.1511167 5:-0.99692193 6:-1.0019179 
0.1247914965829777 1:-0.75844248 2:0.82314748 3:0.20405958 4:1.2071182 5:1.5975582 6:1.5027655 
0.19008454977235856 1:1.1226003 2:1.2071123 3:12.540089 4:1.4410109 5:0.83147717 6:-0.42242757 
0.5 1:-0.50568391 2:-0.47758306 3:-0.49753642 4:0.80384953 5:0.72565571 6:0.8194272 
0.13824800782770513 1:2.9340709 2:2.5804244 3:1.8016548 4:0.85478791 5:0.17429514 6:-0.28519433 
0.46641965989243767 1:1.8791543 2:1.7843687 3:1.9429326 4:-1.2909029 5:-0.088798632 6:-0.41284402 
0.5 1:2.1377101 2:1.7129316 3:1.3490504 4:-0.42714817 5:-0.73288121 6:-0.77481927 
0.5 1:0.29230223 2:0.052599639 3:0.42210663 4:-0.95497649 5:-0.66296487 6:-0.8162956 
0.17775162231028119 1:0.47109399 2:0.14071782 3:0.29002445 4:1.7138334 5:2.0714269 6:-2.3428288 
0.46337094228370285 1:3.3815017 2:2.6722828 3:1.7199394 4:-0.6922004 5:-0.65065455 6:-0.1847242 
0.043150377838319119 1:2.1876002 2:0.33333608 3:-0.70804796 4:-0.0084959267 5:0.15070034 6:0.23742315 
0.5 1:0.58035562 2:0.8981751 3:0.70877232 4:0.030433865 5:0.20215119 6:-0.069800199 
0.096381493269530896 1:0.53317446 2:-0.22436672 3:0.39605245 4:2.3534279 5:2.6100826 6:2.9637064 
0.5 1:0.90799001 2:0.61272606 3:1.153853 4:-0.17779343 5:-0.59320636 6:-0.6186546 
0.5 1:-0.54272149 2:-0.32069081 3:-0.31541488 4:0.066852058 5:-0.25506695 6:-0.076948582 
0.5 1:0.05903016 2:0.45436767 3:0.59877351 4:-1.0119584 5:-0.70944425 6:-0.3737243 
0.27156619377744934 1:1.6274462 2:1.7379907 3:1.8660936 4:0.94065322 5:0.48994453 6:0.46035843 
0.097747306276964097 1:-0.63061992 2:-0.40257788 3:0.10311703 4:5.2023666 5:4.4514233 6:5.0569257 
0.5 1:0.16806604 2:0.22808796 3:-0.022695424 4:0.3406164 5:0.8872682 6:1.0852528 
0.090514927455039987 1:2.2998718 2:1.7328293 3:1.0304091 4:0.81201223 5:0.66292039 6:0.67787351 
0.5 1:0.15843416 2:0.93804521 3:-0.035457794 4:-0.55586764 5:-0.73169753 6:-0.57969199 
0.5 1:-0.77947007 2:-0.65098437 3:-0.72267523 4:-0.4902521 5:-0.59194376 6:-0.3876283 
0.28431285921979965 1:0.094321967 2:0.22823757 3:0.26278599 4:0.69663563 5:0.74696204 6:0.99381632 
0.5 1:-0.51023648 2:-0.76971202 3:-0.46978941 4:-0.42094765 5:-0.18972752 6:-0.34709461 
0.42741744306388924 1:0.21690268 2:-0.38241094 3:-0.35882924 4:-0.1447502 5:0.36439498 6:0.45674497 
0.5 1:0.87269821 2:0.5391197 3:0.41736951 4:-0.035966546 5:-0.070806616 6:-0.28079532 
0.15992038366449751 1:0.98655003 2:0.3129148 3:0.099215868 4:0.7576204 5:1.1781391 6:0.68101566 
0.12623357080205727 1:0.4345982 2:0.41158023 3:0.38901642 4:1.080047 5:0.43194395 6:-0.084568287 
0.5 1:0.15075876 2:0.11999733 3:-0.026937937 4:0.069049707 5:-0.20985017 6:-0.35487142 
0.30320067608045664 1:-0.13645184 2:-0.11786191 3:0.22495866 4:1.0020304 5:0.79533531 6:1.0993139 
0.0028009210213933164 1:-0.77947007 2:1.0093327 3:0.38205006 4:0.15342375 5:0.075654701 6:-0.075063294 
0.5 1:0.15196274 2:-0.044001223 3:0.37926352 4:-0.20424371 5:-0.29404965 6:-0.13947729 
0.4474805658303917 1:2.4358469 2:1.2789234 3:0.56840018 4:-1.0606206 5:-1.0744139 6:-1.2338083 
0.5 1:0.40502532 2:0.37021406 3:0.64384585 4:-0.05456808 5:-0.40460585 6:-0.30208336 
0.5 1:0.00071214123 2:-0.092047324 3:-0.12948972 4:-0.25557453 5:-0.10900019 6:-0.18001098 
0.27883903914714808 1:2.7257815 2:0.4037259 3:0.72549159 4:-0.046012944 5:0.16364197 6:0.12611262 
0.5 1:-0.11610449 2:-0.20075135 3:-0.34392819 4:-0.180462 5:0.22677185 6:0.0041973458 
0.5 1:-0.095027233 2:-0.14307807 3:-0.27597136 4:-0.97828728 5:-1.2146411 6:-1.022499 
0.10065626996692999 1:0.41172249 2:-0.27089431 3:-0.038725017 4:-0.26255991 5:-0.333348 6:-0.19619303 
0.5 1:-0.41236755 2:-0.76971202 3:-0.72267523 4:0.54052402 5:0.54526208 6:0.71015906 
0.5 1:-0.3828022 2:-0.35930422 3:-0.27833992 4:0.68831596 5:0.68541041 6:0.87881377 
0.066660223699275323 1:-0.01275744 2:-0.76971202 3:-0.72267523 4:2.8300039 5:2.8128873 6:3.2096579 
0.5 1:0.050602266 2:-0.29777859 3:-0.22033801 4:-0.044678657 5:0.36013371 6:-0.10483513 
0.29137093613390702 1:0.33722592 2:0.84603726 3:1.2863532 4:1.0773784 5:-0.30446608 6:-0.18016809 
0.5 1:-0.77944967 2:-0.37525975 3:-0.72256397 4:-0.27480396 5:-0.35323391 6:-0.35204349 
0.5 1:-0.29187876 2:-0.17243085 3:-0.25098303 4:-0.7611909 5:-1.1037692 6:-1.1133855 
0.5 1:-0.3946765 2:-0.36453297 3:-0.29570705 4:0.15632779 5:0.53879127 6:0.12226349 
0.5 1:-0.031705152 2:-0.20877025 3:0.15745463 4:-0.53687367 5:-0.50103674 6:0.015194858 
0.5 1:-0.77947007 2:-0.21363994 3:-0.72267523 4:-1.0588939 5:-1.0935896 6:-1.1175489 
0.5 1:1.5427158 2:1.2386793 3:1.1753094 4:-0.87350649 5:-1.1161585 6:-1.1862833 
0.5 1:-0.42905779 2:-0.25444509 3:0.095454033 4:-0.39897116 5:-0.60504321 6:-0.7302008 
0.34552718197423282 1:1.4814631 2:1.0401516 3:0.72333202 4:-0.16264535 5:0.49712555 6:0.77001695 
0.12532650678755425 1:-0.45021783 2:0.05820988 3:0.55948324 4:1.1562583 5:0.67207423 6:2.1326087 
0.17078618020097708 1:-0.11413297 2:1.7290891 3:2.5238573 4:-2.3412224 5:-1.4330705 6:-1.1188843 
0.5 1:-0.77947007 2:-0.76971202 3:-0.29592301 4:-0.42809002 5:-0.61680115 6:-0.34638763 
0.058432494811975294 1:0.63302996 2:1.89029 3:0.99745826 4:0.63706363 5:1.0504589 6:1.2689898 
0.5 1:0.17130175 2:-0.13899382 3:0.1075755 4:-0.33076554 5:-0.170394 6:-0.65345387 
0.5 1:-0.77707302 2:-0.59975914 3:-0.72234489 4:0.55677093 5:0.40321986 6:0.45588087 
0.5 1:-0.6717059 2:-0.58044495 3:-0.57726641 4:-0.32189645 5:0.57524877 6:-0.14269799 
0.5 1:0.97857363 2:0.58213155 3:-0.048819272 4:-0.38084055 5:0.004396851 6:-0.10601344 
0.5 1:-0.77947007 2:-0.48470432 3:-0.72267523 4:-0.23964157 5:-0.28742101 6:-0.28118809 
0.5 1:-0.092972934 2:0.035170492 3:-0.12029412 4:0.66602551 5:0.23434743 6:0.02854898 
0.092478389267443423 1:-0.14900338 2:0.71834819 3:0.82120937 4:1.6672903 5:1.7716389 6:1.2351332 
0.10580144202308174 1:2.9674062 2:2.0512665 3:0.53614594 4:0.2296351 5:-0.29673267 6:0.21534958 
0.5 1:0.18281486 2:-0.05068115 3:-0.11475586 4:-0.55696646 5:-0.74763782 6:-0.88652257 
0.5 1:0.21456996 2:0.31830063 3:0.26647816 4:-0.83222207 5:-0.9877681 6:-0.93506873 
0.12069877642362141 1:3.4855712 2:2.0322665 3:0.51789407 4:0.27570725 5:0.063107638 6:-0.83247766 
0.5 1:-0.2869951 2:-0.12805011 3:-0.5055547 4:-1.3811635 5:-1.3910102 6:-1.4070977 
0.5 1:-0.74168752 2:-0.49305984 3:-0.50620257 4:0.059081797 5:0.44472775 6:0.36350177 
0.23350617544312394 1:1.3378126 2:0.88328926 3:0.48912301 4:-2.3412224 5:-0.19241054 6:0.12100663 
0.5 1:-0.5262871 2:-0.57831306 3:-0.41042906 4:0.0458959 5:-0.0020739615 6:0.051879416 
0.5 1:-0.77947007 2:-0.76971202 3:-0.14460672 4:-0.59385558 5:-0.75284604 6:-0.51472811 
0.18358154120679687 1:2.9753073 2:4.525233 3:3.8484409 4:-0.40650596 5:1.2950872 6:-0.19650725 
0.5 1:0.13969715 2:0.042052387 3:0.08570113 4:-0.65185783 5:-0.71291639 6:-0.20263443 
0.5 1:0.070242269 2:-0.76971202 3:-0.12449484 4:-0.6965957 5:-0.73509076 6:-0.7398629 
0.5 1:0.16558282 2:0.15724933 3:-0.049104893 4:-0.6056287 5:-0.7532406 6:-0.98605006 
0.5 1:-0.20460491 2:-0.35667863 3:-0.27590169 4:-0.94336035 5:-1.0231208 6:-0.90458991 
0.5 1:0.19703693 2:0.0083161403 3:-0.18519969 4:-1.240514 5:-1.2817955 6:-1.099403 
0.5 1:-0.77947007 2:-0.33093137 3:-0.7200053 4:0.6115552 5:0.73252108 6:0.83309554 
0.5 1:-0.40041048 2:0.043249238 3:0.075112264 4:0.80722449 5:0.72920676 6:0.51212529 
0.5 1:0.15655294 2:-0.33295853 3:-0.32199113 4:-0.71409841 5:-0.74290308 6:-0.5896683 
0.14717934191318671 1:2.2203336 2:2.5717473 3:2.0497269 4:0.26903582 5:1.2505806 6:1.6088915 
0.044181386388796276 1:1.1556347 2:0.98337595 3:0.25554098 4:1.2879603 5:1.3136316 6:1.3245272 
0.5 1:-0.77850463 2:-0.48644724 3:-0.72267523 4:1.9629527 5:0.83605408 6:1.4102293 
0.5 1:-0.50341139 2:-0.71766994 3:-0.47378114 4:-0.13980549 5:-0.26311601 6:-0.20719055 
0.5 1:-0.51046222 2:-0.31083923 3:-0.47791219 4:-0.064692965 5:-0.12060031 6:-0.36115571 
0.27554117772557768 1:0.14210512 2:0.84543884 3:-0.10727399 4:-0.016658625 5:0.32375512 6:-0.0096280979 
0.14850777664605694 1:-0.081061008 2:1.5761166 3:0.089044983 4:0.060965496 5:1.2450568 6:0.37418507 
0.5 1:-0.18929925 2:-0.11910364 3:-0.38521781 4:0.1142585 5:0.30000251 6:0.23467378 
0.081488171443459087 1:-0.10276284 2:0.6907458 3:1.2506854 4:1.1576711 5:0.90060438 6:1.7773891 
0.5 1:-0.63702361 2:-0.76919604 3:-0.6409041 4:-0.52070525 5:-0.67093502 6:-0.76162226 
0.5 1:0.14127738 2:0.097481564 3:-0.053068751 4:-0.13360498 5:-0.42362372 6:-0.43625301 
0.20051662295081532 1:0.22066513 2:3.4494881 3:0.7426985 4:0.66790921 5:0.2462632 6:-0.33963201 
0.5 1:-0.078035996 2:-0.095009531 3:-0.39473385 4:-0.10511402 5:-0.021723136 6:-0.051104429 
0.5 1:-0.73790701 2:-0.37681566 3:-0.58516626 4:-1.271595 5:-1.2848731 6:-1.2338868 
0.5 1:-0.77947007 2:-0.76971202 3:-0.61193798 4:0.074700806 5:0.10864006 6:0.058399369 
0.5 1:-0.77947007 2:-0.52833703 3:-0.72267523 4:-0.62768369 5:-0.61435487 6:-0.48189269 
0.5 1:-0.55063769 2:-0.76971202 3:-0.41529158 4:-0.015952238 5:-0.052498952 6:0.021400597 
0.5 1:-0.44118794 2:-0.39506016 3:-0.23868043 4:-0.93661042 5:-0.76034271 6:-0.93483307 
0.14578458616002854 1:1.7954021 2:0.66456468 3:0.75077947 4:-0.026391073 5:-0.69026855 6:-0.13798477 
0.5 1:-0.2830972 2:-0.76479252 3:-0.32604555 4:-1.070824 5:-0.96867131 6:-1.2610664 
0.19004895131379004 1:1.4533199 2:1.6165103 3:3.1519443 4:-2.3412224 5:2.8434264 6:0.43726366 
0.5 1:-0.28781532 2:-0.33529987 3:-0.37880876 4:0.0039835832 5:0.23624133 6:0.043709835 
0.5 1:-0.40210358 2:-0.25197658 3:-0.17906233 4:0.01779738 5:0.29013846 6:0.44967514 
0.5 1:0.36785229 2:0.30842661 3:-0.0096683316 4:0.88170912 5:0.71168822 6:0.92665294 
0.098992692848112018 1:1.922272 2:1.0783012 3:0.22008221 4:0.13788323 5:-0.040977749 6:-0.069250324 
0.20118222782319248 1:-0.14232127 2:-0.76813719 3:-0.11164887 4:0.36416265 5:0.32817421 6:0.27285085 
0.013784881871775659 1:0.74740853 2:0.59006069 3:1.3572011 4:1.9143689 5:1.5621266 6:1.3966395 
0.13138500412290471 1:0.75071949 2:-0.45218737 3:0.42475385 4:3.1323377 5:3.518048 6:2.4586849 
0.5 1:-0.141185 2:-0.46968384 3:-0.36400524 4:0.20255692 5:-0.0087025987 6:-0.43444628 
0.5 1:-0.24101793 2:-0.41907947 3:-0.57484211 4:-1.4543139 5:-1.3756223 6:-1.3371849 
0.5 1:-0.77947007 2:-0.76971202 3:-0.55770487 4:0.18693791 5:0.26007286 6:0.11503656 
0.5 1:0.11764917 2:0.20108401 3:0.05295924 4:-0.85851538 5:-1.0138881 6:-0.93593282 
0.5 1:-0.4049781 2:-0.49010511 3:-0.43356434 4:0.20106566 5:0.2616511 6:0.27434337 
0.5 1:-0.67761295 2:-0.34408177 3:0.35752848 4:-0.25282746 5:-0.24409813 6:0.28259151 
0.5 1:0.055267707 2:0.46723382 3:0.35216438 4:-0.61771578 5:-0.65886143 6:-0.38566445 
0.11779195829733818 1:-0.64178688 2:-0.58024298 3:-0.49951487 4:5.4575294 5:4.6240046 6:4.5086212 
0.5 1:0.18176137 2:0.21649347 3:-0.451238 4:0.085846029 5:0.20223011 6:0.041431779 
0.058273447790194756 1:1.4463218 2:-0.046604375 3:0.73259727 4:0.43660659 5:-0.12683438 6:0.68423636 
0.18113781191288081 1:1.347595 2:1.4345141 3:2.4668725 4:-1.3458442 5:-1.1559303 6:-1.0427658 
0.5 1:-0.12712096 2:-0.18851354 3:0.049754715 4:0.17791185 5:-0.16794772 6:-0.23413445 
0.5 1:-0.13931883 2:-0.014947657 3:-0.23764941 4:-0.12371555 5:-0.078224377 6:0.18408522 
0.5 1:-0.18984857 2:-0.12911231 3:0.38546358 4:-0.88425927 5:-1.0123098 6:-0.87222581 
0.5 1:-0.24053633 2:-0.33437232 3:-0.28540381 4:-0.4344475 5:-0.45518866 6:-0.66665089 
0.5 1:-0.34456815 2:-0.052640994 3:0.45192265 4:-0.25227805 5:-0.40799908 6:-0.16265062 
0.5 1:-0.39386381 2:-0.76971202 3:-0.31367329 4:1.4697373 5:1.3507204 6:0.52909288 
0.5 1:0.59201923 2:0.049831921 3:0.33927662 4:-0.60382349 5:-0.88249903 6:-0.8581647 
0.5 1:-0.77837355 2:-0.44229838 3:-0.71727846 4:0.52380619 5:0.322966 6:0.28620498 
0.5 1:-0.4746813 2:-0.26921124 3:-0.39961727 4:0.37224686 5:0.37717878 6:0.46797814 
0.25386305143891214 1:0.47756541 2:0.74355687 3:0.72660621 4:1.0281668 5:1.8166978 6:1.264905 
0.016998988859267841 1:-0.060819012 2:0.061576024 3:0.18720099 4:1.4237437 5:1.3272834 6:0.68502189 
0.5 1:-0.25228271 2:-0.76971202 3:-0.41954803 4:-0.79101614 5:-0.78354294 6:-0.78173199 
0.33452777463082295 1:0.61444344 2:0.14655247 3:-0.31906526 4:1.1698367 5:0.83416019 6:0.11370114 
0.5 1:-0.47765363 2:-0.38458023 3:-0.27365853 4:0.0038266082 5:-0.44934915 6:-0.50380916 
0.0074383666565521383 1:-0.16867348 2:0.18260761 3:-0.24429532 4:1.9236305 5:2.4289787 6:3.0008623 
0.5 1:-0.21616316 2:-0.16468124 3:-0.22531199 4:0.068735757 5:0.26859539 6:0.2524269 
0.5 1:0.30125687 2:1.2074116 3:2.0650529 4:-0.76064148 5:-0.79451176 6:-0.78628811 
0.015782963010266202 1:-0.064272944 2:0.16270996 3:0.086188775 4:0.58102356 5:1.1657499 6:2.0331598 
0.11655893419296762 1:0.21283923 2:0.58878903 3:0.22830251 4:0.6642203 5:0.43123374 6:0.86545964 
0.5 1:0.082733613 2:0.0092137788 3:-0.47624723 4:-0.61520418 5:-0.84446327 6:-0.88235923 
0.5 1:1.2715935 2:1.4966008 3:1.1735678 4:-0.93158722 5:-0.81605483 6:-0.99963984 
0.5 1:-0.77947007 2:-0.54424019 3:-0.72267523 4:-0.11939874 5:-0.06757121 6:-0.066579499 
0.43409029355880241 1:-0.34359744 2:-0.19107929 3:0.52256154 4:-0.1485176 5:-0.22539591 6:-1.0890339 
0.5 1:-0.54560353 2:-0.20093835 3:-0.21871485 4:1.1601827 5:0.81277494 6:0.76718902 
0.5 1:0.21502145 2:0.36198571 3:0.19158979 4:-1.0267141 5:-1.005839 6:-0.91723705 
0.09821224218671093 1:0.083185107 2:-0.12324774 3:0.25449602 4:2.5624401 5:1.5685974 6:0.48156792 
0.5 1:-0.380477 2:-0.76457035 3:-0.35207883 4:-0.21915633 5:-0.14182773 6:-0.31449484 
0.5 1:-0.1332387 2:-0.24445886 3:-0.069328234 4:-1.4194654 5:-1.462268 6:-1.5084319 
0.5 1:0.093193231 2:0.19337928 3:-0.26182268 4:-0.33492537 5:-0.34368551 6:-0.10915558 
0.5 1:-0.43484445 2:-0.43943342 3:-0.37956809 4:-1.8574099 5:-1.748491 6:-1.7949721 
0.39660245437181146 1:-0.1393715 2:0.39661959 3:-0.11294461 4:0.64671759 5:0.76124518 6:0.87598583 
0.5 1:-0.43296322 2:-0.44020389 3:-0.54329844 4:-0.29701592 5:-0.24117838 6:-0.30396865 
0.5 1:0.53437845 2:0.056639012 3:0.34882053 4:-0.33076554 5:-0.53307515 6:-0.39854725 
0.5 1:-0.4305101 2:-0.25841714 3:-0.39891367 4:0.46721671 5:0.3050529 6:0.32053292 
0.11002102539341296 1:0.41112049 2:2.3768101 3:0.55606972 4:0.53557931 5:-0.79727369 6:0.035618809 
0.5 1:-0.77947007 2:-0.76971202 3:-0.20067198 4:0.68917932 5:0.35658266 6:1.0946007 
0.41594826296034515 1:-0.4305101 2:-0.76263893 3:-0.41580012 4:2.1551685 5:2.0662187 6:1.905353 
0.5 1:0.32751879 2:-0.52753664 3:0.060273918 4:-0.7348191 5:-0.78748856 6:-0.64497008 
0.5 1:-0.77501405 2:-0.31276167 3:-0.72131456 4:0.59852627 5:0.83629082 6:0.90803573 
0.19002918075019332 1:1.284461 2:1.4210495 3:1.3465425 4:2.8380881 5:4.4552111 6:4.1431895 
0.5 1:-0.19039789 2:-0.12122805 3:-0.18140999 4:0.20373423 5:0.16632499 6:-0.15432393 
0.046946655952908908 1:-0.063242032 2:-0.18446669 3:0.54485389 4:0.90470595 5:0.18147616 6:0.36727235 
0.18643113841653383 1:4.5629119 2:2.2295974 3:0.37989049 4:-1.0237315 5:-0.6216148 6:-0.19650725 
0.16303580231651044 1:2.1362804 2:2.8085742 3:2.4663152 4:1.0341318 5:0.4993351 6:0.28777605 
0.16348987991260289 1:-0.043722427 2:1.2577541 3:-0.13022815 4:0.061357934 5:-1.2213486 6:-1.1517983 
0.5 1:0.039013911 2:0.22053284 3:-0.02436735 4:0.64192985 5:0.57635355 6:0.72013538 
0.5 1:0.14722205 2:0.059107518 3:0.053446886 4:0.046131362 5:0.49586295 6:-0.68990277 
0.5 1:-0.77801814 2:-0.76925281 3:-0.37260173 4:0.3882583 5:0.46429801 6:0.42249557 
0.035685250096743969 1:1.4671658 2:0.62028118 3:0.94750947 4:1.3950957 5:1.2310893 6:1.917136 
0.5 1:-0.77947007 2:-0.40973655 3:-0.72267523 4:0.20145809 5:0.15322554 6:0.1385241 
0.32785616015477315 1:1.2793441 2:-0.75335855 3:1.2274178 4:-0.60507929 5:-0.56732311 6:-0.17089876 
0.035770418168296354 1:0.50510657 2:0.48009997 3:-0.048596349 4:1.9412117 5:1.4922892 6:0.16978846 
0.5 1:-0.082340242 2:0.90154124 3:1.5282949 4:-0.7555398 5:-0.55627538 6:-1.2136986 
0.5 1:0.060384643 2:-0.39336212 3:-0.47574565 4:0.16276376 5:0.11495305 6:-0.0038151273 
0.5 1:0.14669531 2:0.37799359 3:0.36923196 4:-1.0226327 5:-1.2454169 6:-1.1710439 
0.2657525426462658 1:-0.77947007 2:-0.1386572 3:-0.47673487 4:1.3067188 5:1.6526391 6:0.85179131 
0.5 1:-0.50102599 2:-0.44447516 3:-0.24502679 4:0.31322427 5:0.074392103 6:0.74079499 
0.5 1:-0.4705426 2:-0.035518539 3:0.36672407 4:-0.70577873 5:-0.48746381 6:-0.78165344 
0.5 1:0.13074251 2:-0.038660274 3:-0.37306151 4:0.27570725 5:0.0040022893 6:0.03114125 
0.5 1:1.1022078 2:0.51480866 3:0.57404293 4:-0.49692354 5:-0.34084467 6:-0.58487653 
0.5 1:-0.18153355 2:-0.4062582 3:-0.14565167 4:-0.002530878 5:0.063738937 6:0.24472864 
0.13628897061270709 1:0.060083647 2:-0.31107112 3:-0.42397166 4:1.3715495 5:0.95994647 6:1.0977428 
0.5 1:0.29252798 2:0.471348 3:0.47073182 4:0.072503157 5:-0.21458491 6:-0.13554961 
0.40185681097788239 1:0.029156285 2:0.23145411 3:0.29197504 4:0.85266875 5:0.74751443 6:0.61118146 
0.5 1:-0.4485473 2:-0.36199714 3:-0.1344219 4:0.25388773 5:0.50225485 6:-0.045055797 
0.11607228884292342 1:2.8218745 2:1.2179588 3:1.1360888 4:1.1293371 5:0.47558248 6:0.27387205 
0.5 1:-0.17727445 2:-0.33283137 3:-0.43722168 4:-1.0399 5:-1.2297134 6:-1.2017584 
0.5 1:0.21043126 2:0.47164721 3:0.73008939 4:-1.0525364 5:-1.0134935 6:-1.1408793 
0.5 1:-0.77790595 2:-0.76971202 3:-0.34530753 4:0.45795519 5:0.21020025 6:0.55462282 
0.5 1:-0.77947007 2:-0.60150205 3:-0.72267523 4:0.12273515 5:0.33077832 6:0.048580162 
0.5 1:-0.54563363 2:-0.76678707 3:-0.40939804 4:-0.060847078 5:-0.19043774 6:-0.12109574 
0.5 1:0.98624903 2:1.0468091 3:1.5991427 4:0.20169356 5:-0.62414 6:-0.60867829 
0.36171213625661247 1:3.0466434 2:1.9552192 3:0.54624716 4:-0.84093418 5:-0.97664146 6:-0.61857605 
0.34382444887942831 1:0.98278758 2:0.54914333 3:1.0298518 4:0.6736388 5:1.165671 6:2.2721985 
0.23712438739504782 1:-0.26172647 2:-0.018014589 3:-0.19043143 4:0.059631209 5:0.50067661 6:0.14755777 
0.5 1:-0.56521344 2:-0.31977821 3:-0.54297798 4:-0.53075164 5:-1.0432435 6:-0.56209597 
0.10714211702643281 1:0.22171862 2:-0.26002541 3:-0.43939518 4:5.1566084 5:5.1629759 6:4.3967608 
0.5 1:-0.77947007 2:-0.30831088 3:-0.72267523 4:0.73273987 5:0.85104743 6:0.84919904 
0.5 1:-0.26475148 2:0.22389898 3:0.87067052 4:-1.1299251 5:-1.0312488 6:-0.9063181 
0.5 1:-0.4825072 2:-0.37266408 3:-0.65988882 4:-0.37432609 5:-0.14119643 6:-0.41520063 
0.5 1:-0.1374075 2:-0.15486706 3:-0.12887668 4:-1.3923872 5:-1.3095727 6:-1.2752061 
0.5 1:-0.77889293 2:-0.29266953 3:-0.72267523 4:-0.0067692021 5:-0.0021528738 6:0.1268196 
0.5 1:-0.32358119 2:-0.45899446 3:-0.18487924 4:0.86883717 5:0.60689263 6:0.40340703 
0.5 1:-0.32296415 2:-0.40404402 3:-0.38929313 4:0.00029467145 5:0.64319231 6:0.45470257 
0.001460823559815903 1:1.2667775 2:0.38854085 3:0.46933855 4:0.69796992 5:0.83850037 6:1.5170622 
0.5 1:-0.77947007 2:-0.61555009 3:-0.72177524 4:0.4930391 5:0.39548645 6:0.47834722 
0.5 1:-0.77947007 2:-0.43721925 3:-0.7155995 4:0.084197792 5:0.4469373 6:0.15989069 
0.5 1:-0.23052068 2:-0.13046625 3:-0.229659 4:-1.12396 5:-1.1002971 6:-1.0288618 
0.5 1:-0.013961425 2:0.11266662 3:0.14045672 4:1.3739826 5:1.5139112 6:0.73482491 
0.44274038846509889 1:0.28598131 2:0.28052501 3:3.3654632 4:-0.85914328 5:-0.7800708 6:-0.85777193 
0.5 1:0.71979212 2:0.72852142 3:1.1556643 4:-0.74808349 5:-0.58760358 6:-0.59791644 
0.5 1:0.62384958 2:0.44060388 3:0.75147611 4:-1.0997074 5:-0.95083712 6:-0.64638404 
0.5 1:0.36393934 2:-0.27706558 3:-0.088785277 4:-0.17300569 5:-0.34707875 6:-0.49658222 
0.070141511161243397 1:-0.75772987 2:-0.69809319 3:-0.58977799 4:6.1919368 5:6.3454775 6:6.6704178 
0.28179768025943552 1:0.43881215 2:0.4573598 3:0.15418044 4:0.26142253 5:0.13310289 6:0.17528721 
0.5 1:-0.52878537 2:-0.45981729 3:-0.41070772 4:0.30529703 5:0.22700858 6:-0.04984757 
0.5 1:-0.33727652 2:-0.29505575 3:-0.27889723 4:-0.44480785 5:-0.93323966 6:-0.67309229 
0.5 1:-0.45507892 2:-0.36703888 3:-0.50104747 4:-0.3385358 5:-0.42891085 6:-0.38008715 
0.18107540208992196 1:2.4648177 2:-0.71331564 3:2.0362818 4:0.59491585 5:0.53334632 6:0.44394072 
0.029110955243233493 1:-0.46698332 2:-0.52217325 3:-0.40353933 4:5.6268269 5:5.286237 6:5.1058646 
0.5 1:0.13781592 2:0.16039106 3:0.3502138 4:0.019288643 5:-0.18396692 6:-0.69783669 
0.081090387902127331 1:0.51210473 2:0.76607263 3:1.5202835 4:0.21660618 5:1.2332199 6:1.4922393 
0.5 1:-0.59809727 2:-0.56455675 3:-0.72267523 4:-1.1177595 5:-1.1395955 6:-0.58919698 
0.5 1:-0.77947007 2:-0.67922258 3:-0.72267523 4:0.023683942 5:-0.10410763 6:0.10490313 
0.5 1:-0.084778312 2:-0.15137375 3:-0.3446527 4:0.43746996 5:0.13136682 6:-0.10664186 
0.19191396264674951 1:0.66169985 2:1.9274672 3:0.047804134 4:-0.084707274 5:-0.91098638 6:-0.96900391 
0.5 1:0.16039064 2:-0.070653606 3:-0.40212516 4:-0.52007735 5:-0.43703882 6:-0.30726791 
0.033517814403538786 1:0.030134522 2:-0.25602344 3:-0.17422071 4:3.7354355 5:3.0600408 6:3.031891 
0.5 1:1.104992 2:1.4623409 3:0.70473184 4:-0.41019487 5:-0.24749136 6:-0.48896251 
0.5 1:-0.71283403 2:-0.2127797 3:0.091622536 4:0.0038266082 5:-0.16202929 6:-0.3459163 
0.5 1:0.47824265 2:0.10189495 3:0.041882729 4:0.35717726 5:0.24223867 6:0.17403035 
0.5 1:-0.12171055 2:-0.56048745 3:-0.50755405 4:-0.90207593 5:-0.98350683 6:-1.0992459 
0.5 1:-0.36113047 2:-0.43873775 3:-0.4223694 4:-0.40163973 5:-0.30454499 6:-0.44968569 
0.5 1:-0.12879148 2:-0.082659521 3:-0.015032428 4:0.028157728 5:0.016075878 6:0.10796673 
0.5 1:-0.24520177 2:-0.26967502 3:-0.40741263 4:0.86444187 5:1.092756 6:1.1206805 
0.10312394224941239 1:0.77434769 2:0.78641911 3:0.54575951 4:0.9144384 5:0.97296701 6:0.54111159 
0.5 1:0.18973777 2:0.32398568 3:0.3548116 4:-0.26789706 5:-0.67993103 6:-0.70396387 
0.18233500892890367 1:-0.2869048 2:-0.2766392 3:-0.0020053361 4:0.8140529 5:0.99687745 6:1.8546073 
0.5 1:-0.77721396 2:-0.76824124 3:-0.48162526 4:-0.44669155 5:-0.32664045 6:-0.30546117 
0.5 1:-0.2270818 2:-0.095308743 3:-0.09679659 4:-0.43342716 5:-0.50229933 6:-0.53570194 
0.5 1:-0.33289703 2:-0.26174588 3:-0.19216605 4:0.91263318 5:0.77166161 6:0.98179761 
0.3562731450878806 1:0.21246299 2:0.43342277 3:1.132536 4:-1.5452809 5:-1.6195956 6:-1.4840017 
0.5 1:0.085969322 2:0.35353294 3:0.81758686 4:-1.0628968 5:-0.98153402 6:-1.0059241 
0.023509339467495019 1:0.57659317 2:1.0298287 3:0.53524031 4:-0.54896074 5:-0.34431681 6:0.35187583 
0.29472632055850101 1:2.3322289 2:0.60232841 3:0.078595443 4:0.54750941 5:0.031779436 6:0.28840448 
0.5 1:-0.45118854 2:-0.13063082 3:-0.44447366 4:0.25647782 5:0.14501865 6:0.46287215 
0.5 1:-0.77947007 2:-0.76971202 3:-0.66746613 4:-0.079056175 5:-0.27029703 6:-0.23837635 
0.18027216505449278 1:3.081559 2:4.1219689 3:1.3881317 4:0.5230998 5:1.2343247 6:0.13365377 
0.3241311688024458 1:2.7364668 2:2.9860822 3:3.2068392 4:0.72787365 5:-0.35394412 6:-0.47545129 
0.5 1:-0.15681423 2:-0.1399513 3:-0.28100107 4:-0.50869666 5:-0.62840127 6:-0.87466097 
0.10498531422758106 1:2.282715 2:2.2059596 3:-0.23202756 4:-0.98048493 5:-1.3806727 6:-0.61826183 
0.5 1:-0.77573042 2:-0.56503549 3:-0.7185781 4:2.1929995 5:2.41075 6:2.3568794 
0.5 1:-0.22008364 2:-0.76971202 3:-0.72267523 4:0.81185525 5:0.93627277 6:0.82814666 
0.081624816013312659 1:-0.77908654 2:-0.76971202 3:-0.18871074 4:1.0663902 5:1.0105293 6:1.0568164 
0.5 1:-0.1277982 2:0.014749216 3:-0.40339304 4:-0.55649554 5:-0.19509356 6:-0.51582787 
0.5 1:-0.030531267 2:-0.030798457 3:-0.09597456 4:1.4255489 5:1.3815751 6:1.237097 
0.5 1:-0.55210505 2:-0.61107686 3:-0.38902144 4:1.0968433 5:1.3626362 6:1.0612939 
0.5 1:-0.77947007 2:-0.14918201 3:-0.069439696 4:0.017954355 5:-0.019355766 6:0.20788698 
0.5 1:-0.42975009 2:-0.46341533 3:-0.50304681 4:0.52105913 5:0.42350033 6:0.31613392 
0.5 1:-0.22325163 2:0.051552394 3:0.51385359 4:-1.0639171 5:-1.1216824 6:-0.93734679 
0.01485712679962611 1:-0.32617728 2:0.11161937 3:0.99571667 4:1.8136695 5:1.238586 6:0.90952825 
0.1964236865585616 1:3.3071557 2:3.7387521 3:3.120526 4:-0.70365957 5:-0.49211964 6:-0.084961055 
0.5 1:-0.56952521 2:-0.35943887 3:-0.4541151 4:-0.78285344 5:-0.92519061 6:-0.87112606 
0.5 1:0.28093963 2:-0.14125287 3:-0.34860262 4:0.40623194 5:0.98567189 6:1.3775509 
0.016846919535208608 1:1.5876395 2:1.8049396 3:1.8940984 4:1.3931336 5:0.91078408 6:0.67245331 
0.043899042183105197 1:0.49156174 2:0.13196584 3:-0.51858179 4:1.713127 5:1.7921561 6:1.8040187 
0.5 1:-0.44968356 2:-0.36660502 3:-0.44067003 4:-0.60303862 5:-0.4944081 6:-0.54921317 
0.5 1:-0.77947007 2:-0.47248148 3:-0.72038065 4:0.42734507 5:0.38712174 6:0.69012788 
0.5 1:0.92740427 2:1.386266 3:0.91504623 4:-0.6194425 5:-1.0601307 6:-0.38974925 
0.054842489982264729 1:-0.20832221 2:0.033599624 3:-0.72267523 4:0.23191124 5:0.78223586 6:1.1891793 
0.17677154676347012 1:-0.046017523 2:-0.27325061 3:-0.19876319 4:-2.3412224 5:1.0551148 6:1.3272766 
0.21415383106738417 1:2.1481697 2:0.83960419 3:1.5753874 4:-0.39897116 5:-0.67985212 6:0.99625148 
0.5 1:0.037433681 2:0.17370603 3:-0.17733467 4:-0.69196494 5:-0.16195038 6:0.041431779 
0.5 1:-0.59714914 2:-0.76971202 3:-0.5047466 4:-0.72485119 5:-0.61616985 6:-0.58668326 
0.023615437884687288 1:-0.21772834 2:1.3146794 3:-0.1865442 4:1.3755524 5:0.83131934 6:1.0571306 
0.5 1:-0.60370333 2:-0.6762903 3:-0.57218096 4:0.84584034 5:1.0845491 6:0.94369909 
0.5 1:-0.63332136 2:-0.28651322 3:-0.37727616 4:-1.2775601 5:-1.2547286 6:-1.3005789 
0.5 1:-0.77427006 2:-0.32323412 3:-0.72267523 4:-0.44339507 5:-0.43246191 6:-0.3940697 
0.36884067065103288 1:1.0295925 2:1.2294037 3:1.0430183 4:0.38770889 5:0.65779109 6:0.77040972 
0.5 1:-0.36645058 2:-0.76512689 3:-0.10139439 4:0.036241939 5:0.053322507 6:0.035618809 
0.067837718160398019 1:0.26912553 2:0.191584 3:-0.51684717 4:0.60237216 5:1.0473814 6:1.0294011 
0.5 1:-0.32462715 2:-0.76971202 3:-0.38625579 4:-0.58577137 5:-0.59391657 6:-0.61849749 
0.5 1:-0.49711304 2:-0.70026921 3:-0.35598 4:-0.5122286 5:-0.70897077 6:-0.55989647 
0.5 1:-0.77947007 2:-0.34687941 3:-0.71756227 4:1.1781563 5:1.2155436 6:1.1546157 
0.5 1:-0.70354378 2:-0.76971202 3:-0.71378755 4:0.35301742 5:0.67657223 6:1.0148687 
0.5 1:-0.77947007 2:-0.030334677 3:-0.72267523 4:-0.0018244906 5:-0.50103674 6:-0.53876553 
0.5 1:-0.10004635 2:-0.26767778 3:-0.028045588 4:-1.0688618 5:-1.2006736 6:-1.2543108 
0.31069676833486781 1:-0.23903888 2:-0.060532732 3:0.04675918 4:0.25812606 5:0.18455374 6:0.18746303 
0.063155099386897423 1:1.1870135 2:1.5807544 3:1.0268563 4:-0.77367041 5:-0.068439246 6:-0.29249982 
0.17067231563533999 1:1.3214836 2:1.6908647 3:2.681715 4:-0.36451515 5:-0.79490632 6:0.19209769 
0.5 1:-0.4044062 2:-0.76846662 3:-0.39800108 4:-0.64981716 5:-0.69784413 6:-0.50294507 
0.5 1:-0.77947007 2:-0.52374412 3:-0.72267523 4:0.17587117 5:0.029096416 6:0.077880676 
0.11481756445144943 1:0.72799427 2:-0.76971202 3:0.68174285 4:1.2690448 5:1.6773386 6:0.6936628 
0.5 1:-0.4866158 2:-0.34958729 3:-0.19715397 4:0.36518298 5:0.59765988 6:0.62846326 
0.18441026620998691 1:1.8972141 2:4.4359928 3:5.6230513 4:-2.3412224 5:-1.2088016 6:-1.1404865 
0.5 1:-0.23298885 2:-0.76971202 3:-0.30994629 4:-0.44724096 5:-0.20606238 6:-0.35809212 
0.5 1:0.96931799 2:-0.39697512 3:0.15181188 4:-1.1489976 5:-1.0430857 6:-1.0334179 
0.5 1:-0.34210751 2:-0.49184055 3:-0.29947585 4:0.0082219073 5:-0.58018582 6:-0.66633667 
0.5 1:-0.77947007 2:-0.76971202 3:-0.24510342 4:-0.61740183 5:-0.5282615 6:-0.56539522 
0.5 1:-0.22042979 2:0.15627689 3:-0.01545041 4:-1.1696398 5:-0.43451363 6:-0.91951511 
0.11877123372431821 1:3.7558658 2:3.3570313 3:2.9559109 4:-0.47698772 5:-0.098268113 6:0.063741018 
0.5 1:-0.56772676 2:-0.28147897 3:0.17912001 4:-0.3912009 5:-0.35347065 6:-0.37639512 
0.5 1:-0.7013766 2:-0.6902411 3:-0.55734958 4:1.0572856 5:0.92522504 6:1.0598014 
0.056963185811268649 1:0.87804089 2:1.2539392 3:1.0717893 4:1.1968364 5:0.14707038 6:-0.82305122 
0.48281880437129004 1:4.4315271 2:4.8576585 3:3.7837234 4:0.13678441 5:-0.35197131 6:-0.32596368 
0.5 1:-0.025625028 2:0.056414603 3:0.13906344 4:-0.071756839 5:-0.54207116 6:0.077566462 
0.5 1:-0.77894903 2:-0.35899753 3:-0.71783277 4:0.57238994 5:0.46319324 6:0.66279121 
0.27975054870075072 1:0.77479918 2:0.55168664 3:-0.12108132 4:-0.16766854 5:-1.1486704 6:-0.77584047 
0.5 1:-0.26247896 2:-0.19713087 3:-0.066137642 4:-0.13501775 5:0.42965549 6:0.40969132 
0.13245830123976757 1:-0.09127983 2:0.12665481 3:0.32234836 4:0.66076685 5:0.74530488 6:0.3931165 
0.5 1:-0.77947007 2:-0.24611201 3:-0.71993599 4:1.2551526 5:1.279068 6:1.3048888 
0.5 1:0.3548342 2:-0.001857096 3:-0.0054885158 4:-0.45242114 5:-0.42820064 6:-0.49021937 
0.5 1:-0.10009902 2:-0.21936986 3:-0.29372861 4:0.71719935 5:0.7773433 6:0.51424624 
0.068947811784735816 1:2.1400428 2:0.88717903 3:0.0019654888 4:-0.69902881 5:-0.94602346 6:-0.75353123 
0.5 1:-0.1394919 2:-0.078141407 3:-0.12401416 4:-0.13038699 5:-0.31519816 6:-0.91653007 
0.21508443439580233 1:5.9635979 2:3.7316458 3:1.8275 4:0.20381272 5:0.0029764288 6:-0.58134162 
0.5 1:-0.43671815 2:-0.68397259 3:-0.57479335 4:-0.029687547 5:0.030437926 6:0.066804611 
0.17017943019452486 1:-0.11210877 2:1.32014 3:2.2381669 4:0.421537 5:0.23276919 6:1.8039402 
0.5 1:2.7916996 2:2.8569719 3:2.115141 4:-0.37605281 5:-0.68624402 6:-0.37450984 
0.5 1:-0.45103052 2:-0.61213907 3:-0.57424997 4:0.83587242 5:0.78483997 6:0.95768164 
0.5 1:-0.43091645 2:-0.76971202 3:-0.72267523 4:-0.44504331 5:-0.44295725 6:-0.60113714 
0.5 1:-0.71824142 2:-0.64598004 3:-0.50274029 4:0.29477971 5:0.32383403 6:0.3812549 
0.14896202418800411 1:0.18085838 2:0.30513527 3:-0.074525139 4:1.2338825 5:3.1872475 6:2.460256 
0.080888153786825498 1:0.31593044 2:0.71797417 3:2.3007945 4:1.0733756 5:0.84497118 6:0.33153044 
0.5 1:-0.20361915 2:-0.42447278 3:-0.28227591 4:0.18160076 5:0.31491694 6:0.44998935 
0.5 1:-0.59361243 2:-0.52278663 3:-0.72267523 4:0.22994905 5:0.57390726 6:0.45171753 
0.33416139813750667 1:0.40133812 2:0.048859479 3:-0.093884652 4:0.2497279 5:0.5287694 6:0.44967514 
0.5 1:-0.77947007 2:-0.31756403 3:-0.72267523 4:-0.47918537 5:-0.60149215 6:-0.57835658 
0.5 1:0.30659956 2:0.078406746 3:-0.088868873 4:0.64153741 5:0.6847002 6:0.71259423 
0.5 1:-0.068637389 2:-0.10032804 3:-0.57753113 4:-0.50626355 5:-0.55209303 6:-0.51944133 
0.37005155277787677 1:0.38056938 2:0.26010374 3:-0.4132574 4:0.49955356 5:0.053322507 6:0.38478982 
0.12630130518153274 1:0.53362596 2:0.52565513 3:0.51162435 4:0.54405596 5:0.22495686 6:1.7362269 
0.11925092422051541 1:0.28297135 2:-0.17293203 3:-0.20451044 4:5.8724928 5:5.39703 6:4.8038258 
0.5 1:-0.38508977 2:-0.72858372 3:-0.3959669 4:1.1061048 5:0.87748307 6:1.3564986 
0.17681210107698103 1:-0.24058901 2:0.10167054 3:1.3534392 4:2.4571099 5:2.5947736 6:1.1408688 
0.5 1:-0.017121885 2:-0.09779221 3:-0.31623691 4:-0.18776134 5:-0.26572012 6:-0.25502972 
0.5 1:-0.36127344 2:-0.25872383 3:0.31266512 4:-0.82052744 5:-0.6618601 6:0.13805278 
0.5 1:0.71324546 2:0.45900547 3:0.28466036 4:-0.11665168 5:-0.032060654 6:-0.013869995 
0.25813973137704138 1:1.0171764 2:1.7982073 3:1.8808623 4:-0.60280315 5:-0.62327196 6:0.059734781 
0.5 1:0.016138198 2:-0.44869406 3:0.049615388 4:-0.69369166 5:-1.1026645 6:-0.9912346 
0.5 1:-0.089165332 2:-0.091127244 3:-0.14401457 4:-0.55288511 5:-0.66430638 6:-0.15809451 
0.14590258419800531 1:2.8519741 2:0.52071811 3:0.91964403 4:0.023919404 5:0.92151616 6:-0.25408708 
0.5 1:-0.56957788 2:-0.76971202 3:-0.4973344 4:-0.05174253 5:-0.099688536 6:-0.016069498 
0.5 1:-0.034895712 2:0.095387074 3:0.23471156 4:-1.259194 5:-1.1433043 6:-1.1984591 
0.34633826733170564 1:0.49494794 2:-0.23382184 3:-0.16361094 4:-0.28579221 5:0.99490464 6:0.47952553 
0.19049341476542592 1:0.30554607 2:1.9825972 3:2.3786784 4:1.867198 5:-1.0490041 6:0.75941221 
0.5 1:-0.58994028 2:-0.76971202 3:-0.72267523 4:-0.0041791151 5:0.023256902 6:-0.10365683 
0.29322788928231364 1:0.17017302 2:-0.050778394 3:0.3435261 4:1.6939761 5:1.6964354 6:0.50230609 
0.38842866337234933 1:1.1885185 2:1.1086713 3:0.86175358 4:-0.26499302 5:-0.93521247 6:-0.2211731 
0.5 1:-0.089323355 2:-0.19797615 3:-0.36167151 4:-1.3694689 5:-1.3602344 6:-1.3883233 
0.5 1:-0.37116117 2:-0.76971202 3:-0.72267523 4:0.011989307 5:0.080862916 6:0.11872858 
0.5 1:0.84786602 2:0.99003344 3:0.76889201 4:-0.65499733 5:-0.86324441 6:-0.44340139 
0.5 1:-0.77947007 2:-0.14300327 3:-0.25267585 4:-1.0486121 5:-0.98895178 6:-0.97136052 
0.5 1:-0.049704727 2:0.023650798 3:0.042022056 4:0.51085575 5:0.59087342 6:0.67465281 
0.19364282940889693 1:3.3103914 2:4.6111819 3:4.8133513 4:-0.46435123 5:-0.17481309 6:0.5766964 
0.0031909449011153865 1:0.64845602 2:0.37963926 3:1.2097232 4:0.094322677 5:-0.078066552 6:-1.1256399 
0.1855785516695847 1:-0.34140017 2:0.40080857 3:1.5016834 4:1.0629367 5:3.5698935 6:2.8156327 
0.19044816948143822 1:-0.46427435 2:-0.50870119 3:9.4801853 4:0.73752761 5:0.58700671 6:-0.48417074 
0.4943187954884008 1:0.47658717 2:-0.036401217 3:-0.23503703 4:0.57843348 5:0.47368858 6:0.49303675 
0.5 1:0.38214961 2:0.51660394 3:0.51768508 4:0.51273945 5:0.44741077 6:-0.1245521 
0.5 1:-0.10714233 2:0.055965784 3:-0.72267523 4:0.19462968 5:0.41726625 6:0.62704929 
0.41350053916380769 1:1.0547257 2:0.9144822 3:0.53942013 4:0.10868589 5:0.23442634 6:0.68219396 
0.11659220307768377 1:-0.16039609 2:0.13480836 3:-0.18951187 4:1.261667 5:0.184317 6:-0.14324787 
0.5 1:-0.25949157 2:-0.42978381 3:-0.43642055 4:0.58439853 5:0.71973728 6:0.60136225 
0.15167689819459129 1:-0.77947007 2:-0.32228412 3:-0.7223088 4:2.848056 5:3.2334112 6:3.9408353 
0.5 1:-0.32356614 2:-0.76971202 3:-0.38851289 4:0.69129848 5:0.76479623 6:0.65305055 
0.14749521900823193 1:1.6175134 2:1.231199 3:0.4370843 4:0.16974915 5:-0.052183302 6:-0.22973545 
0.13908047580457211 1:-0.77947007 2:0.97888776 3:-0.72267523 4:1.9175084 5:2.2084187 6:2.1713356 
0.5 1:-0.29190134 2:0.031430331 3:0.15007029 4:-1.0979022 5:-1.2024097 6:-1.1330239 
0.5 1:0.092892235 2:-0.49210984 3:-0.27201446 4:0.051233048 5:-0.13227934 6:-0.23931899 
0.5 1:-0.089789899 2:0.44456845 3:0.4242662 4:-0.4645867 5:-0.47531131 6:-0.27184021 
0.5 1:-0.77826805 2:-0.36923809 3:-0.71681095 4:0.59507282 5:0.47692399 6:0.53773379 
0.5 1:-0.17551362 2:-0.76971202 3:-0.72267523 4:-0.086826436 5:0.072103645 6:-0.045448566 
0.5 1:0.51714641 2:0.97484839 3:0.678399 4:0.38841528 5:-0.1378032 6:0.13412509 
0.10889520631276736 1:-0.076357942 2:-0.13692177 3:-0.24678231 4:1.5362162 5:1.7428359 6:1.408344 
0.5 1:-0.65144133 2:-0.55036658 3:-0.31187597 4:-0.9530928 5:-0.84533131 6:-0.76287912 
0.5 1:-0.77947007 2:-0.76971202 3:-0.27289223 4:1.0383701 5:1.0280478 6:0.92563174 
0.5 1:-0.31967577 2:0.024099617 3:0.30263357 4:-1.0118014 5:-0.83444141 6:-0.57222939 
0.5 1:-0.37958154 2:-0.76971202 3:-0.52800031 4:-0.33429747 5:-0.37753891 6:-0.36351232 
0.5 1:1.1316302 2:0.73211198 3:0.002453134 4:-1.183689 5:-1.0030771 6:-0.93938918 
0.5 1:-0.073152332 2:0.2357927 3:0.39298725 4:0.43048457 5:0.53397762 6:0.5090617 
0.5 1:0.52534856 2:-0.0238642 3:0.15041861 4:-1.0088189 5:-1.2766662 6:-1.1831412 
0.5 1:-0.027062285 2:-0.087035509 3:-0.18535295 4:0.63133404 5:0.77781677 6:0.69680494 
0.5 1:-0.046521691 2:0.42085583 3:0.21729566 4:-0.6790145 5:-0.59462678 6:-0.5939102 
0.5 1:0.062566866 2:0.2008596 3:-0.23473051 4:-0.1008757 5:0.057741598 6:0.15156401 
0.018000427343368867 1:-0.10566745 2:-0.76855893 3:-0.72267523 4:0.72018187 5:0.65163593 6:0.42705168 
0.5 1:-0.33033103 2:-0.76971202 3:-0.72267523 4:-0.41765118 5:-0.4087882 6:-0.38794251 
0.17886366469055287 1:0.16678681 2:0.21133205 3:-0.030476847 4:1.8481255 5:0.97083637 6:1.3166719 
0.5 1:-0.77947007 2:-0.76971202 3:-0.3747613 4:-0.57533254 5:-0.62508695 6:-0.43358219 
0.5 1:-0.3610778 2:-0.35078414 3:-0.17809401 4:1.6441365 5:1.2563412 6:0.96530134 
0.5 1:-0.16878636 2:0.051028772 3:0.66648652 4:-0.50202523 5:-0.57631912 6:-0.031780229 
0.5 1:-0.4761035 2:-0.76971202 3:-0.50017667 4:-0.76762687 5:-0.67874734 6:-0.68031922 
0.034642033707445972 1:0.53911914 2:0.78843879 3:-0.1970634 4:0.23269611 5:0.64650662 6:0.94259933 
0.30070446808511125 1:0.92409331 2:0.89570659 3:1.8256191 4:0.31024175 5:-0.51973896 6:0.09814752 
0.5 1:0.40743329 2:-0.036109485 3:-0.19144155 4:-0.91023863 5:-0.86324441 6:-1.0111087 
0.5 1:-0.77947007 2:-0.50009134 3:-0.72267523 4:0.00068710887 5:0.0084213807 6:-0.012063261 
0.036188634983584614 1:0.36612156 2:0.27401713 3:1.2276964 4:-0.37840744 5:0.14817515 6:1.3185571 
0.5 1:-0.26411186 2:-0.76971202 3:-0.39834243 4:-0.29678046 5:-0.069544019 6:-0.10263563 
0.5 1:-0.56114246 2:-0.015695689 3:-0.089795399 4:-0.15550298 5:-0.2176625 6:0.032947984 
0.5 1:0.80392057 2:0.48608423 3:0.23094973 4:-1.0605422 5:-1.2436808 6:-0.66209477 
0.5 1:-0.77947007 2:-0.46319092 3:-0.72267523 4:1.4928127 5:1.2215409 6:1.5054363 
0.1940959567291452 1:1.3718252 2:4.1883194 3:2.7501943 4:-0.89265743 5:1.3108697 6:0.038682401 
0.23473106418357578 1:0.87615966 2:0.65745838 3:0.054909821 4:2.7334643 5:0.79060057 6:0.012131265 
0.02613034736636807 1:0.3146512 2:1.2412974 3:0.36867465 4:0.05806146 5:0.49752011 6:0.57583231 
0.18259034448579953 1:3.4174708 2:2.4697905 3:1.5328927 4:-0.3360242 5:1.8382409 6:2.1336299 
0.5 1:-0.22046741 2:-0.084320152 3:0.04655019 4:-0.47431914 5:-0.12959632 6:0.007575153 
0.5 1:-0.079352855 2:0.20437535 3:0.5597619 4:0.37028467 5:0.75090766 6:1.0572091 
0.5 1:-0.49735384 2:-0.55146618 3:-0.30208127 4:0.86836624 5:0.68201718 6:0.89413173 
0.010247574103657217 1:0.37123849 2:-0.23019389 3:0.36463417 4:2.6103175 5:2.5218586 6:2.0975738 
0.5 1:-0.5643556 2:-0.74753138 3:-0.49803103 4:-0.41875001 5:-1.0842779 6:-0.12195983 
0.5 1:-0.44349056 2:-0.76437706 3:-0.39101382 4:0.47851891 5:0.34222061 6:0.071125062 
0.5 1:0.38598731 2:-0.17506392 3:-0.075075481 4:-0.60853274 5:-0.55461822 6:-1.1975951 
0.10652294229792732 1:0.86712978 2:1.025565 3:-0.038954907 4:0.5287509 5:1.6447478 6:1.5462056 
0.092409492708664359 1:0.080777137 2:0.10196976 3:0.39256927 4:1.5405331 5:1.6739454 6:2.6577399 
0.5 1:1.2809996 2:-0.41548143 3:-0.10498903 4:0.46117318 5:0.068710414 6:-0.015519622 
0.39708348159874507 1:0.97631616 2:0.75260806 3:1.7406295 4:-0.48405159 5:-0.15216525 6:0.11142309 
0.5 1:-0.38156059 2:-0.7642279 3:-0.72247916 4:1.7929488 5:1.5696233 6:1.5829687 
0.5 1:-0.55688337 2:-0.66162887 3:-0.59832571 4:0.89191249 5:1.148547 6:0.85399081 
0.5 1:-0.23921195 2:-0.49502716 3:-0.59030046 4:-0.063437165 5:-0.31425121 6:-0.021568254 
0.5 1:-0.47978318 2:-0.4040515 3:-0.20222547 4:-0.028588723 5:0.29850317 6:0.13451786 
0.5 1:-0.298749 2:-0.19832772 3:0.71929153 4:-1.0201211 5:-1.0457687 6:-0.59870197 
0.19053755389734539 1:4.0513688 2:0.87610815 3:0.6064365 4:3.4179537 5:2.735711 6:0.79986734 
0.5 1:-0.67009557 2:-0.76971202 3:-0.72235014 4:0.026117054 5:-0.061021485 6:0.070496632 
0.5 1:-0.55617603 2:-0.42641766 3:-0.041776283 4:0.34760179 5:0.25336531 6:0.18251415 
0.5 1:-0.68857674 2:-0.76971202 3:-0.65491902 4:-0.078506762 5:-0.090929265 6:0.056985403 
0.5 1:-0.30322632 2:-0.34514398 3:0.0074689128 4:0.0058672828 5:0.021047356 6:-0.042463527 
0.5 1:1.2289272 2:1.3065258 3:0.68285747 4:-0.7442376 5:-0.92519061 6:-0.97395279 
0.3555024317455926 1:-0.20556057 2:-0.22637892 3:-0.094971404 4:0.9727546 5:0.40969067 6:0.04810884 
0.5 1:-0.61346313 2:-0.59672961 3:-0.6447356 4:1.0886806 5:1.2719659 6:1.1722117 
0.5 1:-0.59784143 2:-0.63923279 3:-0.56438561 4:0.33465135 5:0.39043606 6:0.1266625 
0.049667596755347869 1:0.033972224 2:0.66830484 3:0.011718392 4:1.5082747 5:0.97462417 6:1.5023727 
0.5 1:0.78074386 2:0.39736762 3:-0.13304256 4:-0.49394101 5:-0.58626207 6:-0.64143516 
0.5 1:-0.54406845 2:-0.76971202 3:-0.26095189 4:-0.58655625 5:-0.5519352 6:-0.46500365 
0.054378730691522298 1:0.009817277 2:2.0567272 3:0.28194348 4:0.54217226 5:-0.62516586 6:-0.097922409 
0.43090692681563553 1:-0.35725514 2:-0.25528288 3:-0.2107732 4:1.3534189 5:0.94582116 6:1.0673425 
0.15024840122138206 1:2.1410963 2:0.30865102 3:0.78554161 4:0.58314273 5:1.6630555 6:1.1589361 
0.44736896550150135 1:1.7723007 2:0.039060259 3:-0.22540255 4:-0.3259778 5:-0.42488632 6:-0.053146824 
0.18970931274958086 1:4.336337 2:1.258951 3:0.32548322 4:1.1609676 5:0.26251914 6:0.77276633 
0.5 1:-0.57924739 2:-0.76971202 3:-0.72267523 4:0.40222908 5:0.17539991 6:0.2717511 
0.1221404468439459 1:-0.29258611 2:-0.33025066 3:-0.53867974 4:4.7814382 5:3.8647889 6:4.0072917 
0.5 1:-0.33954904 2:-0.15604147 3:-0.07071454 4:-0.59424802 5:-0.95541403 6:-0.94645901 
0.5 1:-0.26600814 2:-0.4430539 3:-0.40155392 4:0.41156909 5:0.77142487 6:0.80992221 
0.088793616513380219 1:-0.35901597 2:1.5220339 3:0.48891402 4:0.67536552 5:0.11440066 6:-0.7239165 
0.5 1:-0.49749681 2:-0.75869276 3:-0.41974308 4:1.4785279 5:1.5210922 6:1.4927892 
0.065870799530826502 1:1.5725897 2:1.9237271 3:2.1550582 4:0.16535385 5:-0.36491294 6:-1.1791349 
0.5 1:-0.55644692 2:-0.76971202 3:-0.72267523 4:-0.44410146 5:-0.52431588 6:-0.47631538 
0.5 1:-0.29547567 2:-0.4165212 3:-0.30580131 4:-0.1021315 5:-0.40452693 6:-0.41095873 
0.5 1:-0.50568391 2:-0.55015713 3:-0.2599348 4:-1.1161898 5:-1.0280134 6:-1.2687647 
0.3141668673503335 1:1.9472547 2:1.2624667 3:1.3169355 4:-0.28532128 5:-0.087299297 6:-0.15746608 
0.4399139655997964 1:0.7254358 2:1.5444748 3:1.6108462 4:-1.2421622 5:-0.93016208 6:-0.96358371 
0.5 1:0.47952189 2:0.13922175 3:-0.22830056 4:-0.87146581 5:-1.0353522 6:-0.78628811 
0.5 1:1.24488 2:0.7023403 3:0.87276043 4:-0.46246753 5:-0.39592549 6:-0.34065321 
0.5 1:-0.049471454 2:0.025670484 3:0.013738636 4:-0.78536504 5:-0.35205022 6:-0.78212476 
0.5 1:0.080777137 2:-0.24825138 3:-0.056140916 4:0.27303868 5:0.060424618 6:0.11967122 
0.5 1:-0.64263719 2:-0.69375685 3:-0.57257108 4:1.5559166 5:1.2570515 6:1.2180085 
0.5 1:0.11712243 2:-0.28079826 3:-0.26127234 4:-0.56151874 5:-0.48793729 6:-0.6786696 
0.5 1:-0.46328107 2:-0.76971202 3:-0.72267523 4:-0.013754588 5:-0.013042778 6:-0.17003467 
0.086236300399706339 1:-0.29220234 2:-0.47759802 3:0.78122246 4:1.8992209 5:1.4331049 6:0.61903682 
0.013587650021322594 1:0.3026866 2:0.83534041 3:1.7238406 4:0.98342889 5:0.73575649 6:-0.46900989 
0.5 1:-0.53466232 2:-0.48519802 3:-0.48302549 4:1.6530841 5:1.7376277 6:1.4072442 
0.31312998720150215 1:0.21065701 2:0.66568673 3:0.81723854 4:0.37436602 5:0.12899945 6:0.058163708 
0.0088352230881836719 1:-0.37729397 2:0.20415094 3:0.50862882 4:0.68965024 5:0.77829025 6:0.87904943 
0.1131799355131923 1:0.49878565 2:1.0785256 3:1.1384574 4:2.2520221 5:1.7702974 6:1.0524959 
0.5 1:-0.46561379 2:-0.76971202 3:-0.72267523 4:-0.81958559 5:-0.87026761 6:-0.98707125 
0.5 1:-0.4947126 2:-0.43864799 3:-0.39350081 4:0.11896775 5:0.13831111 6:0.42830854 
0.5 1:-0.77381202 2:0.039658684 3:-0.72267523 4:-0.7549119 5:-0.90064887 6:-0.95525702 
0.5 1:-0.1236896 2:-0.37539439 3:-0.34046591 4:0.51925391 5:0.67949199 6:0.69515531 
0.5 1:-0.43124002 2:-0.48799566 3:-0.30310533 4:-0.46670586 5:-0.43656535 6:-0.38322929 
0.5 1:-0.66871851 2:-0.6888722 3:-0.46127652 4:-0.44315961 5:-0.35181349 6:-0.51229295 
0.46849991222828791 1:1.6500962 2:1.2112265 3:0.21827095 4:-0.4451218 5:-0.54948892 6:-0.60317953 
0.5 1:-0.28752184 2:-0.29380654 3:-0.2612793 4:-0.89061676 5:-0.92929405 6:-0.75078185 
0.1828486822551233 1:4.0090789 2:6.3110848 3:4.4781301 4:-0.41215706 5:-0.11255125 6:-0.088810184 
0.5 1:-0.029425106 2:0.56156066 3:0.62238947 4:-1.0795361 5:-0.94263023 6:-1.0478718 
0.0087740719118025428 1:0.25467771 2:0.035095689 3:-0.24428139 4:3.7627492 5:3.7431061 6:3.058992 
0.027543270854953769 1:2.4475857 2:3.6075473 3:3.2463384 4:0.014029981 5:0.2827207 6:-0.095644353 
0.20054593272977253 1:0.29674193 2:0.88867509 3:1.1781656 4:-0.55633856 5:-0.81976371 6:0.14213757 
0.5 1:0.083185107 2:-0.079278416 3:-0.25058594 4:0.72033885 5:0.94463747 6:0.73608177 
0.5 1:-0.77820175 2:-0.25679391 3:-0.72092235 4:0.66524063 5:0.52734898 6:0.83710177 
0.15479836044910933 1:2.3871607 2:2.9855586 3:0.62594231 4:-0.050251268 5:0.29834535 6:0.41220504 
0.154980188960403 1:-0.77947007 2:1.053691 3:-0.7025104 4:0.24635293 5:0.56238606 6:0.49774997 
0.5 1:-0.086200519 2:-0.18800488 3:0.039444503 4:-0.27496093 5:-0.37027898 6:0.075052745 
0.14392074302896135 1:2.4747506 2:0.77497422 3:1.1891725 4:-0.14514264 5:0.9230944 6:1.6026072 
0.5 1:1.7692907 2:1.3149786 3:0.99808524 4:-0.69730209 5:-0.52471044 6:-0.43586024 
0.5 1:0.28214361 2:0.34829672 3:0.17800539 4:-0.6997352 5:-0.70526189 6:-0.28291627 
0.5 1:-0.77896159 2:-0.76971202 3:-0.36114903 4:2.0152254 5:1.9717606 6:1.7873654 
0.5 1:-0.026829013 2:-0.16179383 3:0.1921471 4:-0.46631342 5:0.38759521 6:-0.27945991 
0.5 1:-0.51490192 2:-0.54461421 3:-0.44775482 4:0.097697639 5:-0.24804375 6:-0.37427417 
0.5 1:-0.77947007 2:-0.76971202 3:-0.19210335 4:-0.85984966 5:-0.76531419 6:-0.92697771 
0.41581707290320918 1:0.097632926 2:-0.76971202 3:0.038399549 4:-0.46843258 5:-0.47483784 6:-0.52776802 
0.5 1:0.69661541 2:0.72238756 3:0.87366605 4:-0.30219609 5:-0.46781464 6:-0.179304 
0.23225588025851615 1:2.3125889 2:0.96871452 3:-0.3755485 4:-1.1104602 5:-1.1677672 6:-1.025484 
0.5 1:-0.23263518 2:-0.26776754 3:-0.66176556 4:-0.6050008 5:-1.228214 6:-1.1121287 
0.47729429004954155 1:0.58976175 2:0.9215137 3:0.84656692 4:-0.16963073 5:-0.33027042 6:-0.53248124 
0.18044456084175392 1:1.9471795 2:3.2872399 3:2.7917835 4:-0.15801458 5:0.66252583 6:-0.092187992 
0.5 1:-0.77947007 2:-0.64915169 3:-0.72267523 4:-0.41506109 5:-0.47673173 6:-0.49029793 
0.5 1:-0.31373862 2:-0.7635154 3:-0.29746954 4:-0.44496482 5:-0.14182773 6:-0.17757582 
0.5 1:-0.52481974 2:-0.421346 3:-0.57082252 4:0.56022438 5:-0.055339796 6:-0.021332593 
0.5 1:1.1419393 2:-0.15721588 3:0.27302654 4:-1.0225542 5:-1.1468554 6:-0.94001761 
0.5 1:0.56763853 2:0.48182045 3:0.12380712 4:-0.77437679 5:-0.8887331 6:-1.0177857 
0.050178190873273208 1:0.6580879 2:1.6541363 3:0.84677591 4:0.062221296 5:0.16040656 6:0.66844707 
0.5 1:-0.33472558 2:-0.22257144 3:-0.30550175 4:-0.1221458 5:-0.02353812 6:-0.014341317 
0.5 1:-0.64902584 2:-0.54212326 3:-0.40789331 4:-0.64628522 5:-0.27440047 6:-0.7829103 
0.5 1:-0.21644159 2:-0.34158334 3:-0.14231478 4:-0.78662084 5:-0.82781277 6:-0.48032161 
0.5 1:0.11456396 2:-0.27620534 3:-0.5152867 4:0.28630306 5:-0.004914806 6:-0.095408692 
0.5 1:-0.10408722 2:-0.25546241 3:-0.23532265 4:-0.12811085 5:-0.21608425 6:-0.064929873 
0.2605498896066345 1:-0.10152875 2:-0.32637585 3:-0.47417822 4:0.76609705 5:1.0020068 6:0.84849205 
0.11988173794085041 1:0.77991612 2:1.1224351 3:0.25275443 4:1.3071898 5:0.34932272 6:1.632379 
0.081885581435900634 1:0.18544857 2:-0.41812199 3:-0.52165396 4:0.72018187 5:0.82895197 6:1.543142 
0.5 1:-0.52709979 2:-0.49118976 3:-0.48137447 4:1.8592707 5:2.6801567 6:2.1919167 
0.5 1:-0.13494686 2:-0.3203916 3:-0.012663866 4:-0.36616339 5:-0.37793347 6:-0.33075545 
0.5 1:1.1776826 2:0.37148571 3:0.69052046 4:-0.05174253 5:0.51551213 6:1.1286929 
0.5 1:3.2293482 2:-0.060899268 3:-0.72123201 4:-0.69141552 5:-0.87587039 6:-0.94528071 
0.012045832223131849 1:0.54077462 2:0.68214344 3:1.342502 4:2.1926071 5:2.1798525 6:1.1257865 
0.5 1:-0.45535734 2:-0.76971202 3:-0.65712596 4:2.0651434 5:1.6782067 6:1.9212994 
0.5 1:-0.77947007 2:-0.45717674 3:-0.72267523 4:-0.61999191 5:-0.61088272 6:-0.58880421 
0.5 1:1.1897977 2:1.2267856 3:1.2109075 4:-0.91275023 5:-0.76081618 6:-0.90812483 
0.5 1:1.0211646 2:0.4760606 3:-0.4172143 4:-0.44378751 5:-0.4529002 6:-0.49234032 
0.5 1:-0.22008364 2:-0.76971202 3:-0.72267523 4:-1.0752193 5:-1.1355709 6:-1.0862845 
0.5 1:0.21441946 2:0.0016586548 3:0.16414234 4:-0.84697772 5:-0.78259599 6:-0.79689285 
0.5 1:0.64063012 2:0.76360413 3:1.0405104 4:-0.69816545 5:-0.22452787 6:-0.61339151 
0.5 1:0.057675677 2:0.68887572 3:0.0092105027 4:-0.57125119 5:0.12923619 6:-0.62454613 
0.29522272562488289 1:-0.77893592 2:-0.76971202 3:-0.10415307 4:0.45371687 5:0.41332064 6:0.5509308 
0.5 1:-0.77432748 2:-0.61365009 3:-0.72267523 4:0.3475233 5:0.16671955 6:-0.2148888 
0.5 1:-0.7764936 2:-0.45696729 3:-0.71599971 4:1.7220746 5:1.3545871 6:1.3895696 
0.0011384651146267748 1:0.37763466 2:-0.072396521 3:0.62357375 4:0.84058167 5:0.25399661 6:0.056121313 
0.02647832606773054 1:0.2589669 2:0.44928105 3:1.125082 4:1.982967 5:1.4039863 6:0.23270993 
0.33115792442314035 1:-0.11601419 2:-0.76971202 3:-0.72267523 4:0.61351738 5:0.76321799 6:0.63215528 
0.5 1:-0.53149433 2:-0.42206412 3:-0.4374237 4:0.65558667 5:0.51132977 6:0.43443573 
0.5 1:-0.22701408 2:-0.099714652 3:0.0039160695 4:0.77449521 5:1.1634614 6:0.75689849 
0.5 1:-0.45602706 2:-0.76971202 3:-0.59971202 4:-0.91125897 5:-0.97695711 6:-0.40522432 
0.5 1:-0.77947007 2:-0.76971202 3:-0.59368611 4:-0.16146803 5:-0.11515536 6:-0.18495986 
0.5 1:-0.77574005 2:-0.7661971 3:-0.43425401 4:-0.15738668 5:-0.29933678 6:-0.04489869 
0.077743263742672292 1:0.52489707 2:0.39968652 3:2.0221401 4:0.61249705 5:0.6898295 6:0.25823987 
0.5 1:-0.77416073 2:-0.76692486 3:-0.39901816 4:-0.26899589 5:-0.28087129 6:-0.26147112 
0.14426893626915885 1:0.24105763 2:0.81050574 3:0.60922305 4:0.60621805 5:0.7102678 6:0.16523234 
0.5 1:-0.77729455 2:-0.54257956 3:-0.72267523 4:-0.91110199 5:-1.0181494 6:-1.0036461 
0.15860803628325892 1:0.45897889 2:1.1649981 3:1.7524026 4:1.2300366 5:1.8094379 6:1.9300188 
0.11546853511400557 1:0.09733193 2:1.2043446 3:2.7670529 4:0.37350266 5:0.40535049 6:0.2039593 
0.5 1:-0.324582 2:0.22958403 3:0.74395244 4:-0.6389074 5:-0.57308371 6:-0.73947013 
0.28780866798409194 1:0.28552982 2:0.067709887 3:0.054561503 4:0.87770625 5:0.77284529 6:1.3730734 
0.1841513174409018 1:0.13879416 2:0.21596984 3:0.16553561 4:2.9243459 5:2.4473653 6:-2.3428288 
0.5 1:0.17160275 2:-0.14490327 3:-0.29170836 4:-0.030629397 5:-0.020381626 6:-0.077812672 
0.5 1:-0.68207522 2:-0.54334256 3:-0.17381666 4:0.60629653 5:0.44488558 6:0.80945089 
0.14048019233629136 1:1.6802711 2:1.4043684 3:0.96304445 4:-0.21672322 5:-0.44856002 6:-1.034282 
0.5 1:-0.40439115 2:-0.59797882 3:-0.33627913 4:-0.8151118 5:-0.88739159 6:-0.80514098 
0.5 1:-0.25916047 2:-0.32857507 3:-0.50877316 4:0.30961385 5:-0.28000325 6:-0.49453982 
0.5 1:-0.16570115 2:-0.20143205 3:-0.012872857 4:-1.0542632 5:-1.0695213 6:-0.98636427 
0.5 1:-0.77947007 2:-0.44469209 3:-0.72267523 4:0.38080199 5:0.44993597 6:0.52540086 
0.5 1:-0.77947007 2:-0.45759564 3:-0.72267523 4:1.371785 5:2.1632019 6:2.4528719 
0.13425832936191467 1:0.33993489 2:0.81514354 3:-0.35712944 4:3.0039322 5:3.6147946 6:3.4083201 
0.5 1:-0.13204977 2:-0.16720959 3:-0.041999206 4:-0.44104045 5:-0.38882338 6:-0.32651355 
0.5 1:-0.50745979 2:-0.27628014 3:-0.71809373 4:-0.98495871 5:-1.0891705 6:-0.95140789 
0.0052098362498652281 1:1.9617025 2:0.59282841 3:0.11920932 4:-0.95890087 5:-0.63431969 6:-1.198302 
0.5 1:-0.18999907 2:-0.11932805 3:-0.43494368 4:-0.42369472 5:-0.45692473 6:-0.58495508 
0.5 1:-0.13134995 2:-0.27289156 3:-0.43577268 4:-0.098207121 5:0.31136588 6:0.13153282 
0.37808834718910339 1:0.11779967 2:0.36048964 3:0.44405066 4:-0.089259548 5:-0.19675072 6:-0.093130636 
0.5 1:0.54461232 2:0.16076508 3:-0.31593039 4:-0.63843647 5:-0.73051384 6:-0.72666588 
0.024028410078747231 1:0.010193522 2:0.45212357 3:0.40455141 4:0.25914639 5:0.46753342 6:0.75886233 
0.32772908585225552 1:0.013203485 2:-0.25641241 3:-0.19153211 4:0.68109511 5:1.0567719 6:1.1634922 
0.095115766210237263 1:-0.14884536 2:-0.00058544145 3:0.28946715 4:0.87778474 5:0.7863393 6:1.2418102 
0.5 1:0.045259583 2:0.0028555061 3:-0.25011223 4:-0.53930678 5:-0.41967811 6:0.46837091 
0.5 1:0.026447318 2:0.16742256 3:0.36665441 4:-1.1834536 5:-1.1511167 6:-1.3815677 
0.5 1:-0.11949823 2:-0.20798482 3:-0.019560562 4:0.15216795 5:-0.048868984 6:-0.015283961 
0.5 1:-0.27048546 2:-0.36337352 3:-0.34208211 4:0.51375979 5:0.37449576 6:0.89695966 
0.5 1:-0.04026097 2:0.046540579 3:-0.060000279 4:-0.29003053 5:0.35058532 6:0.41424744 
0.5 1:1.1821223 2:1.6104512 3:1.7080269 4:-0.92248268 5:-0.61498617 6:-0.29587762 
0.5 1:-0.76085346 2:-0.53283271 3:-0.33437035 4:-0.86283219 5:-0.61119837 6:-0.34890134 
0.5 1:-0.45528209 2:-0.27742463 3:-0.29271152 4:-0.37589584 5:-0.73501185 6:-0.81818089 
0.13595279530129048 1:3.0093199 2:1.3576912 3:0.58881161 4:1.7003336 5:1.2990328 6:1.5045722 
0.10891933339658599 1:0.93056473 2:0.74527734 3:-0.71849249 4:0.99912639 5:0.72565571 6:0.51903802 
0.5 1:-0.77759096 2:-0.19933008 3:-0.71258237 4:0.34414834 5:0.5383178 6:0.50646943 
0.24488984280945872 1:-0.11572072 2:2.1222548 3:2.7186367 4:-1.1378523 5:-1.2052505 6:-1.0690813 
0.15244606008693057 1:0.99746114 2:-0.75304362 3:3.0092732 4:0.14204307 5:0.23355831 6:0.18062886 
0.5 1:-0.32802841 2:-0.33239751 3:-0.15116903 4:-0.46984536 5:-0.61001469 6:-0.93821088 
0.1904016260515104 1:0.63167548 2:0.77153327 3:15.60891 4:0.67379577 5:0.63782627 6:0.78046459 
0.5 1:-0.68128511 2:-0.4673051 3:-0.41168997 4:0.26479749 5:0.46879602 6:0.45454546 
0.053599633486787562 1:0.40096187 2:0.78529706 3:1.3301019 4:0.17524327 5:0.11376936 6:-0.015990944 
0.5 1:-0.34418438 2:-0.23341791 3:-0.17450633 4:0.36015979 5:0.90249828 6:0.81408555 
0.5 1:0.36845428 2:0.43821018 3:0.36923196 4:-0.13415439 5:0.12150278 6:-0.26602724 
0.5 1:0.3827516 2:0.10234377 3:-0.20807722 4:0.045268 5:0.19804775 6:0.48722378 
0.5 1:-0.43193983 2:-0.45305508 3:-0.24732569 4:0.42499045 5:0.36344803 6:0.4122836 
0.5 1:1.1358442 2:1.4710929 3:1.2034535 4:-0.21923482 5:-0.42804281 6:-0.4574625 
0.5 1:-0.37246298 2:-0.32656286 3:-0.67355682 4:-1.1012772 5:-1.2070655 6:-0.92265726 
0.080401002086590553 1:1.2679062 2:0.067410674 3:-0.72267523 4:2.0477977 5:1.5176989 6:1.6377992 
0.5 1:-0.32087223 2:-0.17168282 3:-0.32611521 4:-0.19262756 5:0.82508527 6:-0.64771946 
0.5 1:0.24421809 2:0.15822177 3:0.13335103 4:-0.54558578 5:-0.73864182 6:-1.0584765 
0.5 1:-0.60671329 2:-0.35480855 3:0.11530816 4:-0.87013152 5:-0.82173652 6:-0.26209955 
0.5 1:0.28244461 2:0.12500914 3:-0.24022 4:-0.72014194 5:-0.72033415 6:-0.93671836 
0.38599739576125719 1:-0.36932509 2:-0.13805878 3:0.19054484 4:0.51203307 5:-0.058180641 6:0.083065218 
0.37979140865595595 1:0.67983487 2:1.170758 3:0.8605693 4:0.88461315 5:-0.23281367 6:0.24213637 
0.11881202968531362 1:2.7771766 2:0.98173028 3:0.57042043 4:-0.61912855 5:-0.74732217 6:-0.58825434 
0.5 1:-0.00034134556 2:-0.32541837 3:-0.30402489 4:0.27657061 5:0.053638156 6:-0.23916188 
0.49051076378340447 1:0.39208248 2:1.1979116 3:1.2485259 4:0.42067364 5:-0.048158773 6:0.55870761 
0.5 1:-0.77947007 2:-0.20568836 3:-0.72267523 4:-0.62729125 5:-0.69934347 6:-0.5949314 
0.5 1:-0.18211297 2:0.47359209 3:0.20782141 4:-0.55869319 5:-0.62563933 6:-0.70380677 
0.5 1:-0.31713987 2:-0.31044277 3:-0.24410026 4:-0.23171433 5:-0.18814928 6:0.10843805 
0.5 1:-0.15441379 2:-0.76971202 3:-0.11798826 4:-0.15832853 5:-0.12296768 6:0.64370267 
0.5 1:-0.38264418 2:-0.22792735 3:-0.30898493 4:0.028785628 5:0.72920676 6:1.0704847 
0.17529395782371748 1:0.22743755 2:-0.76971202 3:1.9571439 4:0.28740189 5:0.082204426 6:0.06916122 
0.5 1:-0.77889913 2:-0.3675625 3:-0.72206297 4:2.0744834 5:2.1234301 6:2.0039378 
0.5 1:-0.7557305 2:-0.72012348 3:-0.54641937 4:0.59499434 5:1.223277 6:0.15187822 
0.5 1:2.3145454 2:1.3149786 3:0.11259128 4:0.10664521 5:-0.034270199 6:-0.229814 
0.5 1:-0.28528695 2:-0.59773945 3:-0.38483466 4:0.78980027 5:0.39161974 6:0.45116766 
0.5 1:-0.77947007 2:-0.76971202 3:-0.48003693 4:-0.22111852 5:-0.28371213 6:0.083143771 
0.5 1:0.15828367 2:0.062024843 3:0.076157218 4:-0.037379321 5:0.08638678 6:0.18094307 
0.17825667611223761 1:1.5320304 2:2.4242353 3:2.5253202 4:2.0806839 5:0.58984756 6:0.060284657 
0.093697795036274165 1:0.061137133 2:0.26324547 3:0.7101656 4:1.9241014 5:1.4690889 6:-0.73499257 
0.12246752857564565 1:-0.46945149 2:-0.26618171 3:-0.03064404 4:1.3754739 5:1.2753591 6:2.0902683 
0.0034670685439658344 1:1.1074753 2:1.5020614 3:1.3301716 4:-0.053704717 5:0.40085249 6:-0.51684906 
0.32249390876374806 1:0.84192134 2:1.7451718 3:1.7046134 4:0.31542192 5:-0.6171168 6:-0.082997214 
0.5 1:-0.3930737 2:0.0092137788 3:-0.1049751 4:-0.23838577 5:-0.29586463 6:-0.29737014 
0.36308058125414716 1:1.8659857 2:1.3368211 3:1.4562627 4:0.62003184 5:0.57177663 6:1.2978975 
0.5 1:-0.77947007 2:-0.38107944 3:-0.72267523 4:-0.62831159 5:-0.6362925 6:-0.51622063 
0.5 1:-0.31007399 2:-0.29478646 3:-0.716775 4:-0.56269605 5:-0.77525714 6:-0.73750629 
0.39306941226000947 1:1.1636111 2:1.232695 3:-0.01893359 4:-1.1479772 5:-0.13472562 6:0.07968741 
0.021860180191297325 1:-0.12404327 2:0.24873365 3:0.19535163 4:-0.10401519 5:0.46824363 6:1.0403986 
0.5 1:0.33135649 2:0.41763929 3:0.59090152 4:-0.29442583 5:0.30079163 6:-0.18723792 
0.5 1:0.16964627 2:0.011607481 3:-0.042828203 4:0.3030209 5:0.14446627 6:0.19366877 
0.023491676082240731 1:-0.44093962 2:-0.42564719 3:-0.41897678 4:2.6843312 5:3.4355846 6:2.9087188 
0.5 1:-0.77947007 2:-0.76971202 3:-0.56339638 4:0.071247357 5:0.10366858 6:0.1051388 
0.5 1:-0.33756247 2:-0.3273857 3:-0.082257798 4:0.32531134 5:0.28785 6:0.22941068 
0.16204354196843784 1:3.9495569 2:1.0767304 3:0.89916293 4:-0.1265411 5:-0.48328146 6:-0.81692403 
0.5 1:-0.73759849 2:-0.60105323 3:-0.36684752 4:0.8341457 5:1.1588845 6:1.3257841 
0.5 1:-0.65798047 2:-0.66771037 3:-0.37427366 4:-0.26585639 5:-0.37004224 6:-0.12290247 
0.5 1:2.5357024 2:1.4213487 3:1.2111862 4:-0.85859386 5:-0.87058326 6:-1.0090663 
0.5 1:-0.69278316 2:-0.75469603 3:-0.53251451 4:-1.2202642 5:-1.1864694 6:-1.2788195 
0.11943048457719224 1:-0.18501758 2:-0.11840049 3:-0.15686054 4:2.1685899 5:1.2138864 6:1.1304997 
0.5 1:-0.4005384 2:-0.20729663 3:-0.48354797 4:0.4628999 5:0.81853554 6:1.1344274 
0.18380415311488596 1:-0.40551236 2:0.20953677 3:4.2035162 4:0.37208988 5:0.22692967 6:1.0786543 
0.5 1:-0.20951115 2:-0.28097779 3:-0.18841118 4:-1.1551981 5:-1.226399 6:-0.93695402 
0.19499784955899374 1:6.8028506 2:0.54547798 3:0.68982383 4:0.58918626 5:0.68612062 6:0.76758179 
0.5 1:-0.11624747 2:-0.064272893 3:0.030875881 4:-1.4165614 5:-1.5276864 6:-1.4599643 
0.5 1:-0.77947007 2:0.014973626 3:-0.72210539 4:0.217705 5:-0.38661383 6:-0.29147862 
0.5 1:0.23180199 2:0.0077177146 3:0.31914384 4:-0.31514653 5:-0.064177979 6:-0.18213193 
0.5 1:-0.71398233 2:-0.67828006 3:-0.72267523 4:-0.19835715 5:-0.14656247 6:-0.0049934321 
0.5 1:0.12449684 2:0.26204862 3:-0.17849805 4:-0.74918231 5:-0.87792211 6:-1.0098518 
0.5 1:-0.37746704 2:-0.25578406 3:-0.18943524 4:0.289835 5:-0.14829854 6:0.44056291 
0.036380640246276366 1:1.3778451 2:1.5577898 3:2.6215953 4:0.39885411 5:0.0013192695 6:0.38164767 
0.5 1:-0.77947007 2:-0.21197183 3:-0.72267523 4:-0.055117492 5:0.11952997 6:0.13420365 
0.5 1:-0.56918659 2:-0.76971202 3:-0.5153912 4:-0.3635733 5:-0.39632005 6:-0.46115452 
0.5 1:-0.0066622663 2:-0.0071681237 3:-0.22086745 4:-1.1984447 5:-1.0585525 6:-0.92030065 
0.5 1:-0.77853458 2:-0.76971202 3:0.011648729 4:0.3418722 5:0.19118238 6:0.35627484 
0.5 1:1.3165171 2:0.77018681 3:0.617931 4:-0.34434387 5:-0.65120693 6:-0.38487892 
0.5 1:-0.66679214 2:-0.26719903 3:-0.046151156 4:0.81436685 5:0.067289992 6:-0.41197993 
0.5 1:-0.77947007 2:-0.37347943 3:-0.72267523 4:-0.38798291 5:-0.2751896 6:-0.29689882 
0.017437391084687896 1:0.66862277 2:0.12807608 3:-0.055764732 4:-0.0041006277 5:-0.040819924 6:0.23066754 
0.18060633052605179 1:0.19056551 2:0.52408426 3:0.90801021 4:1.0222802 5:3.0766124 6:3.8248901 
0.5 1:-0.12350148 2:-0.76971202 3:-0.72267523 4:-0.47910688 5:-0.33508407 6:-0.50145255 
0.5 1:-0.34349962 2:-0.15342336 3:-0.20513045 4:0.11323816 5:-0.36672792 6:-1.1702584 
0.17465862753992889 1:4.0422637 2:4.5409417 3:1.8780061 4:-0.36843953 5:-0.2304463 6:-1.1406437 
0.5 1:0.4063798 2:0.25613917 3:0.085213485 4:-0.28579221 5:-0.42749043 6:-0.33484024 
0.41283888567853155 1:2.0271692 2:0.863242 3:1.0359126 4:-1.2808565 5:-1.165242 6:-0.67159977 
0.5 1:-0.77528149 2:-0.47322951 3:-0.31714254 4:0.78940783 5:0.97762284 6:0.5863585 
0.3705604166744364 1:0.016138198 2:0.22958403 3:0.83040496 4:-0.10307334 5:0.1146374 6:0.68227251 
0.5 1:-0.49943071 2:-0.76642472 3:-0.49548831 4:1.3617386 5:1.4781639 6:1.2798302 
0.30597653181210366 1:-0.16834239 2:-0.27023604 3:-0.19539844 4:0.52568989 5:1.8693324 6:1.8458878 
0.5 1:0.024189847 2:-0.76971202 3:-0.72267523 4:-0.019798124 5:0.029017504 6:0.17968622 
0.5 1:-0.77947007 2:-0.46520313 3:-0.72267523 4:0.36227895 5:0.25226054 6:0.22289073 
0.5 1:0.10666281 2:-0.04602091 3:0.019451051 4:-0.47761562 5:-0.57332045 6:-0.70961974 
0.5 1:0.066479816 2:-0.76666858 3:-0.72012756 4:-0.94775565 5:-0.99344979 6:-0.89587046 
0.5 1:0.0036468544 2:-0.76971202 3:-0.72267523 4:-0.68552896 5:-0.53994052 6:-0.3727031 
0.5 1:-0.63947673 2:-0.76971202 3:-0.72267523 4:0.073445006 5:0.17697816 6:0.13663881 
0.041775930446694247 1:-0.43977326 2:-0.20743127 3:-0.47594767 4:1.0081525 5:1.5270106 6:1.3979749 
0.5 1:-0.77713449 2:-0.4589421 3:-0.7198682 4:-0.26405117 5:-0.17844306 6:-0.42619814 
0.037768644970946036 1:0.8053503 2:0.28897778 3:0.05720872 4:0.78069572 5:0.86990748 6:0.78219277 
0.5 1:-0.77110614 2:-0.23488405 3:-0.72267523 4:0.31777654 5:0.37709987 6:0.063583911 
0.09619489610280367 1:-0.77947007 2:1.865231 3:-0.053228978 4:0.62246496 5:0.77702765 6:0.84487859 
0.5 1:0.73491718 2:1.2522187 3:0.73085568 4:-1.1595149 5:-1.1376226 6:-0.95635677 
0.5 1:-0.34112175 2:-0.083542199 3:-0.67410995 4:0.029256553 5:0.41608257 6:0.3661726 
0.13300212044765272 1:-0.023668553 2:-0.057263832 3:-0.052790097 4:0.48715253 5:1.3965685 6:0.22886081 
0.03871021052705257 1:0.63197647 2:0.31598173 3:-0.44168712 4:3.1568258 5:2.8812254 6:2.9575792 
0.5 1:-0.4865556 2:-0.76971202 3:-0.72267523 4:1.1151309 5:0.68769887 6:0.92798835 
0.5 1:0.11697193 2:0.53029292 3:0.41277171 4:-1.1818838 5:-1.1914409 6:-1.0783506 
0.5 1:-0.54481342 2:-0.54101618 3:-0.50198792 4:0.2377978 5:0.14935883 6:0.046066445 
0.13549925122808221 1:1.3956039 2:0.3898873 3:0.050869333 4:0.0054748454 5:-0.55856384 6:-1.2244604 
0.0060417196575436576 1:1.6433238 2:0.41674165 3:0.16456032 4:1.490615 5:1.6488513 6:1.6502892 
0.5 1:-0.55861409 2:-0.76748042 3:-0.49729956 4:0.34556111 5:0.2245623 6:0.23608774 
0.19052226131583261 1:-0.498761 2:4.5461031 3:0.36115099 4:-0.41474714 5:-1.3762536 6:-1.2751275 
0.12081295454771748 1:0.90663553 2:-0.76971202 3:0.90703492 4:1.8051929 5:1.7748743 6:1.9941971 
0.5 1:2.1429775 2:2.0933059 3:2.5272708 4:-1.3067574 5:-0.68450794 6:-0.45596998 
0.5 1:0.067382805 2:0.15500523 3:0.10590357 4:0.24070183 5:0.056873562 6:-0.19603593 
0.22487551862690106 1:-0.77803289 2:1.4623409 3:1.8789117 4:-1.2910599 5:-1.2033566 6:-1.1583968 
0.12768645934931211 1:2.0780376 2:2.3769597 3:3.1003932 4:-1.390896 5:-1.2002001 6:-0.020389949 
0.5 1:1.948835 2:2.8210664 3:1.396979 4:-0.35305598 5:-1.1479602 6:-0.7378205 
0.5 1:-0.31394931 2:0.16278476 3:0.010255457 4:-0.078114325 5:-0.56740202 6:-0.96963234 
0.44566345751321312 1:0.46597706 2:0.089253211 3:0.077132508 4:0.67159812 5:0.7096365 6:0.87260803 
0.19568218156177661 1:4.3981917 2:4.8732924 3:2.3614715 4:0.33520077 5:-0.023617032 6:0.61243831 
0.5 1:-0.77947007 2:-0.69428795 3:-0.72267523 4:-0.46380182 5:-0.46915615 6:-0.44473681 
0.5 1:-0.45653875 2:0.059556338 3:0.5959173 4:-1.0842454 5:-1.0086799 6:-0.83357741 
0.5 1:0.71768515 2:0.27379272 3:0.57801376 4:-0.65845078 5:-0.72901451 6:-0.42816198 
0.17052269207535575 1:-0.26837848 2:-0.17707613 3:0.4931635 4:2.2528855 5:2.0369422 6:-0.9214004 
0.18067331140858223 1:1.424349 2:1.4521677 3:0.64496047 4:4.4437066 5:4.149189 6:3.3118562 
0.5 1:-0.43321907 2:-0.6128497 3:-0.67124608 4:-0.30737627 5:-0.26374731 6:-0.28865069 
0.1066533393200628 1:2.6588098 2:2.7970545 3:1.9876566 4:0.76821621 5:1.0274165 6:-0.39894002 
0.087949508920645014 1:-0.34051975 2:1.4453606 3:0.40448174 4:1.1890661 5:0.59600272 6:1.284622 
0.5 1:-0.27444356 2:-0.023834278 3:-0.079352826 4:-1.1817268 5:-1.2729573 6:-1.1894255 
0.5 1:-0.77482608 2:-0.40130623 3:-0.72257644 4:0.79984667 5:0.7045072 6:0.78745586 
0.12978689746161395 1:1.8940536 2:1.5971363 3:1.758324 4:1.9280258 5:2.0962054 6:1.5879176 
0.15776637125878112 1:2.4378033 2:3.5634882 3:4.3154656 4:-0.56395185 5:-0.28142367 6:-0.61268452 
0.2144137822818577 1:1.0125862 2:0.50934803 3:0.17173567 4:0.50057389 5:-0.24804375 6:-2.3428288 
0.5 1:-0.25051436 2:-0.22907184 3:-0.22947787 4:0.35231104 5:0.46011566 6:0.33475114 
0.5 1:-0.47303334 2:-0.24335177 3:-0.71879754 4:1.0524194 5:0.83597517 6:0.7904409 
0.25956337033609117 1:0.43497445 2:0.62731268 3:0.66976071 4:1.5906866 5:1.3542715 6:1.4191844 
0.5 1:0.92477055 2:0.95248223 3:0.38845911 4:0.61869756 5:0.29321604 6:0.54181858 
0.0078661842009058788 1:-0.071399029 2:-0.18790763 3:-0.20222547 4:4.4833428 5:3.8212293 6:3.1231703 
0.14457576357377777 1:2.9909591 2:2.382944 3:1.6731255 4:0.95854836 5:1.2688883 6:0.86805191 
0.5 1:0.0015398808 2:0.28157226 3:0.44669788 4:-0.16492148 5:-0.17702264 6:-0.37505971 
0.5 1:0.64574705 2:0.49124565 3:0.39180297 4:-0.10958781 5:-0.56834897 6:-0.76390031 
0.5 1:-0.50548826 2:-0.49014251 3:-0.4405098 4:1.2918062 5:1.1573852 6:1.2066182 
0.5 1:-0.53170503 2:-0.76822292 3:-0.44929438 4:2.340399 5:2.2021057 6:2.0010313 
0.5 1:-0.14310386 2:-0.29069472 3:-0.41424663 4:0.47789101 5:0.49862488 6:0.93450831 
0.19724701069668504 1:3.4285324 2:2.0075067 3:1.1655565 4:-0.96910424 5:-1.0026036 6:1.1685197 
0.5 1:-0.10224362 2:-0.29280417 3:-0.2386456 4:0.36769458 5:0.56696298 6:0.48989461 
0.21435589062643218 1:4.8680469 2:1.5153016 3:0.03610065 4:0.063477096 5:0.28114245 6:0.24142939 
0.14179729898730781 1:-0.77947007 2:1.0451634 3:-0.71087561 4:1.6360523 5:0.49665208 6:0.505841 
0.5 1:-0.77947007 2:-0.76971202 3:-0.33923983 4:1.5585852 5:1.7700606 6:1.7656846 
0.5 1:-0.6981108 2:-0.60501032 3:-0.64264569 4:0.29462274 5:0.03193726 6:-0.047883729 
0.0036162441611330256 1:0.003120111 2:0.80758841 3:0.4416821 4:0.11206085 5:0.42823507 6:0.35784591 
0.5 1:-0.53755941 2:-0.76971202 3:-0.53731433 4:0.13034843 5:0.19126129 6:0.40293571 
0.16489573403094893 1:0.49163698 2:0.93116331 3:2.7543741 4:0.022428142 5:-1.130126 6:-0.040578239 
0.29042084259417311 1:-0.44481495 2:1.2415218 3:2.0936846 4:-0.77806571 5:-0.94886431 6:-1.0159004 
0.5 1:-0.37750467 2:-0.30610418 3:-0.3822362 4:1.1271395 5:1.1842154 6:1.5138415 
0.5 1:-0.61021237 2:-0.4451035 3:-0.32341923 4:0.14063029 5:0.024282763 6:0.39830104 
0.5 1:-0.089993071 2:0.056264996 3:-0.056642494 4:-0.11641622 5:-0.0053093678 6:0.16978846 
0.035717725870221165 1:-0.75768848 2:0.61511976 3:-0.11807882 4:0.49696347 5:1.1572273 6:0.87362922 
0.16231341286436893 1:1.4966634 2:1.6288528 3:1.2557012 4:-0.7624467 5:0.60539329 6:-0.039085719 
0.5 1:-0.27373622 2:-0.27346754 3:-0.38103799 4:0.42734507 5:0.23134876 6:0.10278219 
0.5 1:-0.62983733 2:-0.097650084 3:-0.49844901 4:-0.68678476 5:-0.62855909 6:-0.17757582 
0.010290393309808082 1:3.2231025 2:1.3836479 3:0.68543502 4:-1.2964755 5:-0.90609382 6:-1.4176238 
0.5 1:-0.43905087 2:-0.22993208 3:-0.13454033 4:0.40010991 5:0.55804588 6:0.65705679 
0.12543932703091271 1:-0.34441766 2:0.025595681 3:-0.22424614 4:6.5247237 5:5.9083031 6:6.4237593 
0.5 1:0.12592657 2:0.034347657 3:-0.13765429 4:-0.71543269 5:-0.41186578 6:-0.49516825 
0.18434654430678962 1:1.1356937 2:1.041124 3:0.87053119 4:0.55943951 5:0.43565283 6:0.30686459 
0.5 1:-0.77947007 2:-0.62238711 3:-0.72267523 4:-0.18831075 5:-0.082406731 6:-0.14748977 
0.5 1:-0.068637389 2:0.098603612 3:0.1626794 4:-0.095224596 5:-0.11405058 6:-0.28739383 
0.11590921377511428 1:-0.46744234 2:-0.76971202 3:-0.43309063 4:1.5041149 5:1.5379005 6:1.8126596 
0.5 1:-0.77895539 2:-0.60040992 3:-0.71447373 4:0.48040261 5:0.47897571 6:0.41189083 
0.5 1:-0.77947007 2:-0.67234069 3:-0.72267523 4:-0.053155305 5:-0.028430686 6:-0.13900597 
0.5 1:-0.41163011 2:-0.21086474 3:-0.65460205 4:0.30937838 5:0.12221299 6:0.25054161 
0.45579907059250874 1:0.15700443 2:0.35974161 3:0.24968923 4:0.408979 5:0.08370376 6:0.56129988 
0.30951411756266584 1:2.2016718 2:0.3012455 3:-0.10135956 4:-0.26624882 5:-0.40184392 6:-0.818338 
0.5 1:0.30020339 2:0.27745808 3:0.1688098 4:-0.89053827 5:-1.0887759 6:-1.2172335 
0.5 1:1.8204601 2:1.8816129 3:1.3116411 4:-1.5266793 5:-1.5242931 6:-1.5796408 
0.5 1:-0.77947007 2:-0.35719477 3:-0.72267523 4:-0.34583513 5:-0.26019625 6:-0.30059084 
0.5 1:0.25813916 2:1.1543013 3:1.6256846 4:-0.47471158 5:-1.0338529 6:-1.189504 
0.27934832800187409 1:-0.07854769 2:0.20646984 3:0.16887946 4:0.63517993 5:1.3112642 6:0.77127381 
0.061586990412119444 1:0.37387221 2:0.14071782 3:1.7021055 4:0.11606371 5:0.09277868 6:1.1070907 
0.5 1:-0.52180978 2:-0.54151736 3:-0.16849436 4:-1.3154695 5:-1.2386305 6:-1.3723769 
0.5 1:-0.50140224 2:-0.28015495 3:-0.12510091 4:-1.5153771 5:-1.4011899 6:-1.3718271 
0.092918366592972812 1:-0.45203886 2:-0.082509915 3:-0.066061012 4:5.1778 5:5.8712143 6:7.1527373 
0.19033663199902179 1:8.8448842 2:7.1923414 3:3.2280866 4:-0.5279261 5:0.32533337 6:0.98517542 
0.032702205173205441 1:3.859559 2:1.7554199 3:0.542346 4:0.43056306 5:0.016154791 6:-0.38802106 
0.10781603490964166 1:1.6728967 2:1.1415099 3:0.436527 4:0.49892566 5:0.06855259 6:-0.2857442 
0.5 1:-0.48490764 2:-0.36047115 3:-0.18607049 4:0.31903234 5:0.54644577 6:0.26601669 
0.5 1:-0.40025998 2:-0.34712626 3:-0.64727832 4:-0.6458143 5:-0.73090841 6:-0.77026316 
0.20140135107960946 1:3.2233282 2:-0.63064538 3:1.5955202 4:-1.4459157 5:-1.4101859 6:-1.3982997 
0.5 1:-0.67643154 2:-0.76971202 3:-0.48940668 4:-0.29057994 5:-0.24086273 6:-0.19085139 
0.5 1:-0.0083929946 2:0.013701971 3:-0.072999506 4:0.56399178 5:0.86020126 6:0.70646704 
0.5 1:-0.064859886 2:-0.38983141 3:-0.68315019 4:-0.069794652 5:-0.10923693 6:-0.19996361 
0.5 1:0.1917695 2:0.22591867 3:-0.13413628 4:-1.0556759 5:-0.98106055 6:-0.82328688 
0.5 1:-0.6057802 2:-0.76760796 3:-0.55918174 4:0.28402693 5:0.47384641 6:0.43357164 
0.5 1:0.78450631 2:0.54158821 3:0.6617494 4:-0.84603587 5:-0.84730412 6:-0.90655376 
0.5 1:0.3270673 2:0.25037932 3:0.60371962 4:-0.32793999 5:-0.34526376 6:-2.3428288 
0.5 1:-0.63836304 2:-0.76971202 3:-0.72267523 4:-0.42549993 5:-0.60346496 6:-0.51519944 
0.5 1:0.41382946 2:-0.00036103182 3:-0.33308854 4:-0.075367263 5:-0.21853053 6:-0.28205218 
0.083314698718867694 1:1.0175526 2:0.46087555 3:0.39242994 4:-0.40218915 5:-0.18041587 6:-0.31857963 
0.35018180492148004 1:0.77525068 2:1.0382067 3:0.90111351 4:-0.18493579 5:-0.18467713 6:-1.6031676 
0.10491789913178615 1:0.43316847 2:-0.24576044 3:-0.011270594 4:4.7779063 5:4.3991833 6:3.5554511 
0.5 1:0.20170237 2:-0.10046268 3:-0.12295527 4:-0.74981021 5:-0.68111471 6:-0.10617054 
0.5 1:-0.77947007 2:-0.40685662 3:-0.72267523 4:0.62646782 5:1.0619801 6:0.92830257 
0.5 1:-0.3887845 2:-0.76971202 3:-0.37908044 4:-0.83865804 5:-0.58799814 6:-0.96790416 
0.15533762725838879 1:0.11403722 2:0.38322982 3:0.24676336 4:3.4706973 5:3.0911322 6:4.3225275 
0.10044366368866686 1:2.2187533 2:1.5555457 3:0.90933382 4:1.782039 5:1.9329357 6:1.8945911 
0.5 1:-0.39837875 2:-0.48646968 3:-0.37999304 4:-0.87758784 5:-0.67701127 6:-0.63185162 
0.5 1:-0.45430385 2:-0.64666075 3:-0.70833428 4:-0.67038088 5:-0.69145223 6:-0.76350755 
0.13511006582905699 1:0.29696768 2:0.28217068 3:0.28396372 4:-0.085884586 5:0.14927992 6:-0.02235379 
0.5 1:-0.62595448 2:-0.59616858 3:-0.45162811 4:-0.11673017 5:0.84165686 6:0.99106694 
0.18680874595873781 1:4.9435217 2:3.3235195 3:1.6311183 4:0.77567252 5:-0.69168897 6:0.38808907 
0.5 1:-0.3869409 2:-0.34585461 3:-0.36687538 4:0.24815815 5:0.21667107 6:0.31267756 
0.5 1:-0.77720169 2:-0.50351733 3:-0.72267523 4:-0.48122604 5:-0.49669656 6:-0.40263204 
0.5 1:-0.39306617 2:-0.43250664 3:-0.32578083 4:-0.29583861 5:-0.43096257 6:-0.44952858 
0.5 1:-0.63314828 2:-0.57617368 3:-0.5101316 4:1.7465627 5:1.698566 6:1.4325385 
0.12036353829954456 1:0.55379271 2:1.7930459 3:1.2125794 4:-1.5229904 5:-0.43080475 6:-0.51040766 
0.5 1:-0.33726147 2:-0.2613569 3:-0.22235825 4:0.16700209 5:0.2814581 6:0.2587112 
0.055454343668249508 1:-0.0996701 2:-0.43619444 3:-0.46684264 4:3.7366129 5:3.9209745 6:4.922756 
0.5 1:-0.05863679 2:-0.34289988 3:-0.40820679 4:0.3945373 5:0.58235089 6:0.15329219 
0.31904695401806937 1:0.46770778 2:-0.073481167 3:0.27170293 4:1.0653698 5:0.76929424 6:-0.049140587 
0.37099916253845427 1:0.48606855 2:0.057686257 3:-0.49700698 4:0.02093688 5:-0.40247521 6:-0.71056238 
0.5 1:-0.70605409 2:-0.76971202 3:-0.64532077 4:-0.51262104 5:-0.4087882 6:-0.23468433 
0.5 1:0.91468718 2:0.91994283 3:0.5815666 4:0.12202876 5:0.092226294 6:-0.021961022 
0.5 1:-0.24572099 2:-0.25224587 3:0.059855936 4:-0.29332701 5:-0.47854672 6:-0.56987278 
0.10634089091095372 1:2.0459815 2:1.4968252 3:-0.0038862532 4:-1.3139782 5:-1.4939119 6:-1.4094543 
0.5 1:-0.32751672 2:-0.54415791 3:-0.61552565 4:0.45261804 5:0.38065092 6:0.58643705 
0.16749748668846284 1:0.025168085 2:-0.17646274 3:-0.090380573 4:0.6096715 5:0.057347036 6:-0.63145885 
0.18620711664991971 1:2.0707384 2:1.4584511 3:0.0096284843 4:-0.16617728 5:-0.54120312 6:0.048344501 
0.19532503941851614 1:3.8850684 2:3.6595355 3:5.230497 4:-0.28861776 5:0.4737675 6:-0.79437913 
0.34934982352502758 1:3.0875037 2:3.4785118 3:0.90097418 4:-1.6946111 5:-1.5094576 6:-1.3113408 
0.5 1:-0.50986776 2:-0.45045941 3:-0.56742294 4:0.65472331 5:0.53547695 6:0.67048947 
0.5 1:0.029984024 2:-0.4216153 3:-0.57424997 4:-0.22559231 5:-0.20992909 6:-0.092659314 
0.5 1:-0.77947007 2:-0.28457582 3:-0.72148872 4:0.48762346 5:0.57919439 6:0.63278371 
0.5 1:-0.60677349 2:-0.37926172 3:-0.52947718 4:-0.96698508 5:-1.0309332 6:-0.84771707 
0.5 1:-0.7016776 2:-0.75678528 3:-0.72267523 4:0.34995641 5:0.36865625 6:0.039860706 
0.5 1:-0.47351494 2:-0.39841882 3:-0.29204971 4:0.34972095 5:0.94495312 6:0.88266289 
0.5 1:0.48080112 2:0.65543869 3:0.15585237 4:-0.093419384 5:-0.052893513 6:0.0023906117 
0.14521809545834896 1:-0.051616053 2:0.67997414 3:0.10660021 4:-0.54511485 5:1.6419859 6:2.1240463 
0.18498730009952463 1:2.3283912 2:5.0341941 3:5.7717831 4:-1.3460011 5:-1.1510377 6:-1.5282274 
0.5 1:-0.77947007 2:-0.050007921 3:-0.72267523 4:-0.8853581 5:-1.0293549 6:-1.0594192 
0.5 1:1.0011483 2:0.50381259 3:0.42844602 4:-1.5697297 5:-1.2987617 6:-0.91283805 
0.18288783680322371 1:0.17032351 2:1.17001 3:3.4919723 4:1.1156803 5:0.77584396 6:-0.16060823 
0.15954074459875889 1:-0.045265032 2:0.22389898 3:0.21081695 4:-0.1892526 5:0.39793273 6:0.91471279 
0.5 1:0.35355497 2:0.14543042 3:0.4198774 4:-0.50704842 5:-0.38314169 6:-0.62737406 
0.091705431189945175 1:0.47989813 2:0.70144266 3:-0.11898445 4:3.0832046 5:2.4553355 6:1.9352033 
0.5 1:-0.3506257 2:-0.54743429 3:-0.38075934 4:-0.60672753 5:-0.43735447 6:-0.82792155 
0.5 1:-0.62007752 2:-0.76971202 3:-0.72267523 4:-0.11005873 5:-0.10915802 6:-0.093680511 
0.041592254798892364 1:0.410368 2:0.58527328 3:0.22586428 4:2.2850653 5:2.3710571 6:2.3742397 
0.5 1:-0.77947007 2:-0.52549451 3:-0.72267523 4:-0.2645221 5:0.03864481 6:-0.10514935 
0.17561771934867323 1:0.82792502 2:1.76866 3:-0.099332345 4:-0.35596002 5:-0.58026473 6:-2.3428288 
0.5 1:0.38222486 2:0.45960389 3:0.26132305 4:-0.30619895 5:-0.44106335 6:-0.45589142 
0.19059965592795386 1:5.5736573 2:6.1504823 3:3.2745522 4:0.33237522 5:4.247356 6:4.5656511 
0.5 1:0.63762015 2:0.5273008 3:0.6738012 4:-0.53373417 5:-0.032060654 6:0.31330599 
0.5 1:-0.67529528 2:-0.53954255 3:-0.24090967 4:-1.3149986 5:-1.3060216 6:-1.2652298 
0.46715762203300892 1:1.1967959 2:1.371455 3:1.109965 4:0.13246759 5:-0.17915327 6:0.19578972 
0.5 1:-0.55577721 2:-0.56552171 3:-0.43947181 4:1.2975358 5:1.3396727 6:1.3485646 
0.5 1:-0.77947007 2:-0.76971202 3:-0.41736756 4:-0.2062059 5:-0.22208159 6:-0.33075545 
0.5 1:0.80369482 2:0.3618361 3:-0.13304952 4:-1.0108596 5:-1.11387 6:-0.46484654 
0.5 1:0.54069937 2:0.91156487 3:0.93044188 4:0.15962426 5:0.40014227 6:1.0155757 
0.18469471536009702 1:-0.64745313 2:-0.25037579 3:-0.51439501 4:2.1534418 5:3.577548 6:1.7091259 
0.5 1:-0.71406284 2:-0.69163244 3:-0.43124454 4:0.14518257 5:0.16379979 6:0.27033714 
0.5 1:-0.24340332 2:-0.046230359 3:-0.15285488 4:0.81695694 5:0.85428284 6:0.55100935 
0.045027712859495674 1:1.7432545 2:0.39482431 3:0.80929689 4:0.28826525 5:0.95039808 6:-0.013084459 
0.33201803767661842 1:0.82228134 2:0.238336 3:-0.14710764 4:0.40277849 5:0.24176519 6:0.46185095 
0.25704030389153015 1:0.0013893827 2:0.038237423 3:0.074345964 4:2.0531348 5:1.7344712 6:1.3861133 
0.5 1:-0.66952368 2:-0.54821224 3:-0.31568657 4:-0.38539282 5:-0.29333944 6:-0.39870436 
0.5 1:-0.33282178 2:-0.22643129 3:-0.014753774 4:-1.0564608 5:-1.1190782 6:-0.83860484 
0.5 1:0.29967664 2:0.41517079 3:0.40141654 4:0.27492238 5:0.45056727 6:0.12776225 
0.5 1:-0.034225996 2:-0.070302031 3:-0.20285245 4:-0.20212455 5:-0.17236681 6:-0.20232022 
0.5 1:-0.77947007 2:-0.53452326 3:-0.59854167 4:-1.0694897 5:-1.2976569 6:-1.2003444 
0.5 1:-0.34021876 2:-0.76117773 3:-0.44400691 4:-0.066655152 5:-0.29010403 6:-0.066658053 
0.5 1:-0.68478419 2:0.49872597 3:-0.11515991 4:-0.97546173 5:-1.1204987 6:-1.1998731 
0.5 1:-0.42284222 2:-0.52447719 3:-0.563682 4:0.72716726 5:0.50817328 6:0.29963765 
0.5 1:0.077541428 2:-0.76971202 3:-0.40716881 4:-0.80498691 5:-1.0297495 6:-0.032408658 
0.5 1:-0.75190785 2:-0.56041265 3:-0.51871415 4:-0.30533559 5:0.68990842 6:0.74684362 
0.5 1:-0.63023615 2:-0.76971202 3:-0.51628289 4:0.089691916 5:0.07762751 6:0.21849172 
0.5 1:0.05346173 2:-0.026250422 3:0.03240848 4:-0.44857525 5:-0.88912766 6:-0.67804117 
0.5 1:-0.77947007 2:-0.76971202 3:-0.35549235 4:-1.2000929 5:-1.2068288 6:-1.1701798 
0.5 1:-0.52269772 2:-0.67171234 3:-0.41371022 4:-0.46843258 5:-0.33989772 6:-0.20153468 
0.17917285209862316 1:1.3582051 2:-0.092294174 3:-0.67247634 4:0.2979977 5:0.53105786 6:0.75116407 
0.047203893034140541 1:1.030646 2:1.34864 3:0.72368033 4:-0.41772967 5:-0.86395462 6:-0.27301851 
0.17776720875993629 1:5.0477416 2:2.5472866 3:2.3176531 4:-0.059905229 5:1.2126238 6:0.62516401 
0.07193144847053759 1:1.5635598 2:-0.019660259 3:-0.72267523 4:1.7002551 5:1.7376277 6:1.5661583 
0.5 1:-0.35755614 2:-0.43632909 3:-0.48165312 4:1.2839575 5:1.5456339 6:1.1132179 
0.5 1:0.89083323 2:0.42459599 3:0.37605899 4:-0.056137829 5:0.30134402 6:-0.090774026 
0.5 1:0.40735804 2:0.11984772 3:-0.23684828 4:-0.09106476 5:-0.32127441 6:-0.21748107 
0.5 1:-0.7793499 2:-0.25650966 3:-0.72267523 4:-0.35211413 5:-0.42370264 6:-0.24544618 
0.16117555125986302 1:3.8007142 2:0.48458816 3:0.75468063 4:-0.41066579 5:-0.62658628 6:-1.0443369 
0.5 1:-0.69464934 2:-0.76971202 3:-0.62141919 4:-0.054332617 5:-0.21158624 6:0.026506584 
0.5 1:-0.089210481 2:-0.49861772 3:0.079152752 4:-0.27150749 5:0.079915968 6:0.11024478 
0.5 1:-0.77947007 2:-0.38752747 3:-0.72267523 4:-0.13580263 5:0.0032920781 6:-0.074670526 
0.5 1:-0.012381195 2:-0.23088208 3:-0.21642988 4:-1.0403709 5:-0.93742202 6:-0.60514337 
0.5 1:-0.28589646 2:-0.40232355 3:-0.4232402 4:-0.7599351 5:-0.88352489 6:-0.91165974 
0.096188138315060248 1:0.6099285 2:0.00076101629 3:0.064593061 4:1.1966794 5:0.85783389 6:0.81659927 
0.19013181311287372 1:0.96149209 2:2.5271646 3:1.2667081 4:-2.3412224 5:1.6068699 6:0.86593097 
0.5 1:0.85373544 2:0.8538168 3:0.8016339 4:-0.11665168 5:0.10398423 6:0.085343274 
0.5 1:-0.77461282 2:-0.53426893 3:-0.52364634 4:0.53534385 5:0.83597517 6:0.58408044 
0.5 1:0.072650239 2:0.099052431 3:0.15348381 4:-0.45940652 5:0.53287284 6:0.45014646 
0.032962800237282631 1:-0.1471372 2:-0.14079657 3:0.22126649 4:0.68219393 5:1.2793837 6:0.68729995 
0.5 1:1.1745974 2:0.25853287 3:-0.21096129 4:-0.34575665 5:-0.066308613 6:-0.022746559 
0.5 1:0.19372597 2:-0.084118184 3:0.40817391 4:-0.48326672 5:-0.47965149 6:-0.46029043 
0.5 1:-0.75339703 2:-0.1749218 3:-0.09907459 4:-0.67077332 5:-0.76278899 6:-1.1064728 
0.5 1:-0.77947007 2:-0.54713508 3:-0.72267523 4:-0.38170391 5:-0.47617935 6:-0.59760222 
0.019216953262918775 1:1.7242918 2:1.2862541 3:2.5223944 4:-0.29882113 5:-0.30635997 6:-0.045684227 
0.5 1:-0.44248975 2:-0.071289433 3:-0.081804984 4:-0.050172781 5:0.055137491 6:-0.13649225 
0.25795090887550731 1:1.1588704 2:0.88620659 3:0.43032694 4:-0.82272508 5:-0.43924837 6:0.67253186 
0.5 1:0.59420145 2:0.41696606 3:0.37612866 4:-1.052301 5:-1.1017964 6:-0.91063855 
0.014139232508275134 1:-0.055062459 2:1.0097067 3:1.3451493 4:1.2502079 5:1.3598742 6:1.4304961 
0.5 1:-0.28731867 2:-0.34582469 3:-0.49472898 4:1.0575211 5:0.92751349 6:0.56373505 
0.5 1:-0.21208467 2:-0.76971202 3:-0.72267523 4:-0.68309585 5:-0.61056707 6:-0.7291796 
0.5 1:-0.12059686 2:0.0050996023 3:0.66202805 4:-0.90537241 5:-1.2947371 6:-0.84182554 
0.029556939726093179 1:2.2045313 2:2.5668851 3:1.9626474 4:1.0135681 5:-0.22302854 6:-0.37238889 
0.5 1:-0.071775275 2:-0.38202196 3:-0.087482567 4:-1.0530858 5:-0.85858858 6:-1.238443 
0.5 1:-0.28302195 2:-0.54702287 3:-0.53342711 4:0.0075940074 5:-0.10876346 6:-0.041285222 
0.21914940622226953 1:0.44994901 2:1.711286 3:1.0992368 4:0.56093077 5:-0.44627157 6:-0.26484893 
0.5 1:-0.34737494 2:-0.60042488 3:-0.52559692 4:0.45740578 5:1.2301423 6:0.99829388 
0.27309991136963663 1:1.5932832 2:1.3116872 3:0.90487535 4:-0.43515389 5:-0.094401408 6:0.058085155 
0.5 1:-0.36359112 2:-0.76971202 3:-0.72267523 4:1.9054214 5:1.7253962 6:1.9990675 
0.5 1:-0.051676252 2:-0.02642995 3:-0.053263809 4:-0.17473242 5:0.030201189 6:-0.11748227 
0.5 1:-0.34480895 2:-0.32314435 3:-0.18672532 4:-1.1080271 5:-1.0665226 6:-1.0932758 
0.5 1:0.76765052 2:1.1150296 3:1.4657369 4:-0.42086917 5:-0.42591218 6:-0.50090267 
0.5 1:-0.28968902 2:-0.3130534 3:-0.72267523 4:-0.75608921 5:-0.55793254 6:-0.52321191 
0.5 1:-0.20616256 2:-0.20003323 3:-0.30005406 4:0.15012728 5:0.23766175 6:0.00066243121 
0.17825567068069026 1:3.2066982 2:3.200917 3:4.8115401 4:0.22045206 5:-0.1819152 6:-0.044977244 
0.30498010611262472 1:0.33955864 2:0.26137539 3:0.32436861 4:-0.57376279 5:0.69377512 6:0.67033236 
0.5 1:0.25068951 2:0.10376503 3:0.15724564 4:-1.0471993 5:-0.83854485 6:-1.0957895 
0.5 1:-0.20181317 2:0.29563526 3:0.22781486 4:-0.41733723 5:-0.38637709 6:-0.69532297 
0.5 1:-0.020959587 2:-0.095271342 3:-0.10333104 4:-0.13077943 5:-0.35607475 6:0.098461734 
0.5 1:0.018621417 2:0.11835166 3:0.021889277 4:0.43951063 5:1.0643475 6:0.74126631 
0.5 1:-0.35188989 2:-0.76953817 3:-0.72136214 4:0.57623583 5:0.57122424 6:0.47819011 
0.5 1:-0.040682365 2:-0.16732179 3:-0.38799042 4:0.19313842 5:0.32091428 6:0.49005172 
0.5 1:-0.432444 2:-0.43950074 3:-0.48149289 4:-0.078192812 5:-0.150587 6:-0.31339509 
0.5 1:-0.4645603 2:-0.40236843 3:-0.2629373 4:-0.43311321 5:-0.59367983 6:-0.32627789 
0.5 1:0.66719303 2:0.56874177 3:0.14066571 4:-0.6144193 5:-0.79593218 6:-0.66932171 
0.16564368455402734 1:1.4330027 2:3.0371728 3:0.46014295 4:0.66877257 5:-0.80477036 6:-0.82289411 
0.25057279840717328 1:-0.26822046 2:-0.48177204 3:0.34784524 4:-0.12206732 5:-0.091323827 6:-0.078676763 
0.5 1:-0.77947007 2:-0.25970375 3:-0.7213503 4:1.1244709 5:0.87645721 6:0.72877628 
0.20961434834546744 1:0.57245447 2:1.3730259 3:1.1364371 4:0.77920446 5:1.8875611 6:0.23098175 
0.5 1:-0.10609637 2:-0.61385954 3:-0.19896522 4:-0.53663821 5:-0.53473231 6:-0.47443009 
0.5 1:1.3320184 2:1.1536281 3:0.28542666 4:-0.71755186 5:-0.90183255 6:-1.0181785 
0.5 1:-0.38239585 2:-0.4007452 3:-0.33567306 4:0.35874701 5:0.49381123 6:0.2653097 
0.5 1:-0.39496997 2:-0.44842477 3:-0.51814988 4:-0.2594989 5:0.39611775 6:0.28714762 
0.5 1:-0.77947007 2:-0.40245819 3:-0.72267523 4:-0.41663084 5:-0.26524664 6:-0.36296245 
0.21070402500373081 1:0.26190162 2:0.57135988 3:0.44725519 4:1.1814528 5:1.05764 6:1.000729 
0.5 1:-0.43372324 2:-0.75474016 3:-0.4616527 4:0.19541456 5:0.44528014 6:0.11213007 
0.31063686253402323 1:-0.45789323 2:-0.4766929 3:-0.388283 4:1.2501294 5:1.5502897 6:1.8112457 
0.1600976570932259 1:0.012676741 2:-0.18387574 3:-0.25868782 4:1.0740819 5:1.3689492 6:1.6334002 
0.37533456947488281 1:0.1594124 2:0.60270243 3:0.8249712 4:0.90282225 5:0.43068135 6:-0.30004097 
0.5 1:0.19681118 2:0.32151717 3:0.33070799 4:-0.22056911 5:-0.25183154 6:-0.30656092 
0.5 1:-0.55140523 2:-0.76971202 3:-0.72267523 4:-0.068852802 5:0.035646141 6:0.025485387 
0.5 1:0.2753712 2:0.1753517 3:0.049894042 4:-0.042559495 5:-0.091797301 6:0.15313508 
0.076776570603418443 1:0.23383372 2:-0.12679341 3:-0.35890587 4:1.3569508 5:1.1781391 6:1.2881569 
0.01118569817063887 1:-0.067471029 2:0.47299367 3:0.12979819 4:2.4308951 5:1.474455 6:1.2552429 
0.5 1:0.58404283 2:0.12882411 3:-0.35617505 4:0.39500823 5:0.54060625 6:0.53616271 
0.5 1:-0.52359318 2:-0.58099849 3:-0.69772033 4:-0.88904701 5:-0.53844119 6:-0.83789786 
0.0066798786769913122 1:0.55725416 2:-0.085337476 3:0.034428724 4:0.085610566 5:-0.23454974 6:-0.026831349 
0.5 1:-0.40819123 2:-0.33886799 3:-0.33403596 4:-0.25808613 5:-0.49898502 6:-0.42761211 
0.5 1:-0.22361282 2:-0.30864001 3:-0.41312504 4:0.48644615 5:0.53689737 6:0.53419887 
0.060968388843941464 1:0.15053301 2:-0.76971202 3:0.17974698 4:3.5443185 5:3.5880433 6:3.3658226 
0.5 1:-0.77947007 2:-0.38904598 3:-0.72267523 4:-0.023722499 5:-0.021486399 6:0.088642527 
0.5 1:-0.77947007 2:-0.76971202 3:-0.63171547 4:-0.40579957 5:-0.42054614 6:-0.427455 
0.5 1:-0.77947007 2:-0.76971202 3:-0.6522732 4:-0.15518903 5:-0.1237568 6:-0.052989717 
0.35847894834766952 1:1.6770354 2:-0.50451221 3:0.17668179 4:-0.3448148 5:-0.48635904 6:-0.69233793 
0.18998363719230402 1:3.861064 2:3.2093698 3:-0.59316364 4:-1.4123231 5:-1.4662926 6:-1.3909156 
0.17223410330847039 1:-0.094094145 2:-0.11826585 3:-0.12877915 4:2.638416 5:1.9091831 6:3.9668366 
0.5 1:-0.2130027 2:0.094040616 3:0.86913792 4:-0.78018487 5:-0.92866275 6:-0.63334414 
0.22753458717215724 1:-0.035181659 2:1.5948174 3:0.97168273 4:-1.4407355 5:-1.174238 6:-1.160125 
0.5 1:-0.77066518 2:-0.54603547 3:-0.71515017 4:0.49555069 5:0.31365434 6:0.32493193 
0.5 1:-0.25405859 2:0.039209865 3:-0.1093221 4:0.68313578 5:0.26015177 6:0.13239691 
0.5 1:-0.77947007 2:-0.28221952 3:-0.72262115 4:0.50112331 5:0.42720921 6:0.47551929 
0.5 1:-0.065055534 2:-0.098375675 3:-0.16486489 4:1.0842068 5:0.76826838 6:0.58172383 
0.5 1:0.024867088 2:0.011158662 3:-0.43960418 4:-0.5128565 5:-0.8561423 6:-0.832242 
0.5 1:-0.77947007 2:-0.76971202 3:-0.19466001 4:-0.0029233154 5:-0.18002131 6:0.14975727 
0.5 1:-0.40573811 2:-0.044883901 3:-0.36821292 4:-0.34952404 5:0.50264941 6:0.4468472 
0.5 1:-0.5439631 2:-0.76971202 3:-0.51652672 4:-0.55932109 5:-0.52905062 6:-0.66335163 
0.44821500523063407 1:1.8217393 2:1.5392386 3:1.3429897 4:-0.42589237 5:0.20009947 6:-0.080954819 
0.3128439201891447 1:1.783588 2:4.0966855 3:2.5254596 4:-0.87601809 5:-0.95470382 6:-1.0624828 
0.5 1:0.30953427 2:0.76913957 3:0.32172139 4:-0.18054049 5:-0.36633336 6:-0.43735276 
0.033427751525346321 1:-0.067614002 2:0.08783195 3:-0.12062851 4:2.5352834 5:2.563761 6:1.5743278 
0.5 1:0.36740079 2:0.3151589 3:0.22335639 4:-0.095617034 5:-0.41620596 6:-0.30553972 
0.17636389750738227 1:0.89030649 2:0.90587983 3:0.99223349 4:0.52647476 5:0.20341379 6:0.18840567 
0.5 1:-0.77947007 2:-0.31269435 3:-0.59725986 4:-0.26248142 5:0.07597035 6:-0.057231614 
0.41469107443839182 1:0.67148223 2:0.43948183 3:1.1991344 4:-0.68333131 5:0.77568614 6:-0.28142375 
0.18471271907307901 1:5.9219851 2:2.840216 3:0.47909145 4:-0.23493232 5:0.011498962 6:0.93018786 
0.16525424890195356 1:0.51300772 2:2.6078772 3:2.394701 4:0.45434477 5:0.76298125 6:-0.5659451 
0.5 1:-0.77819189 2:-0.21039348 3:-0.72267523 4:0.64012464 5:0.49791467 6:0.38879605 
0.082316933561128652 1:1.9486092 2:1.39427 3:1.2095142 4:0.5719975 5:0.34080019 6:0.57756049 
0.5 1:0.92168534 2:0.43080466 3:0.29608519 4:-1.6361458 5:-1.686529 6:-1.5580307 
0.5 1:-0.44140616 2:-0.76971202 3:-0.21409615 4:-0.11476798 5:-0.05478741 6:-0.082290231 
0.13533387525477392 1:0.311265 2:-0.74837366 3:0.76478186 4:3.3297337 5:3.0489931 6:3.1403736 
0.13820854881279412 1:-0.77947007 2:0.24955649 3:0.37780058 4:1.9120143 5:3.0800845 6:2.0117146 
0.27208109250838386 1:1.5156261 2:1.7238529 3:1.3314952 4:0.16708057 5:-0.46891941 6:-0.067600697 
0.36937276927560309 1:-0.77680814 2:0.65678515 3:-0.72267523 4:-0.083843911 5:-0.89291545 6:-0.92344279 
0.19856844642513916 1:3.8618165 2:2.4286487 3:0.7396333 4:-0.3704802 5:0.20483421 6:-0.24638882 
0.5 1:0.083410854 2:0.2266667 3:-0.088729546 4:-0.22574928 5:-0.47231264 6:-0.28770804 
0.5 1:0.41232448 2:0.19913912 3:-0.21573325 4:0.74906527 5:0.42160643 6:0.27292941 
0.16112973623530408 1:0.39877965 2:-0.19421354 3:-0.087587063 4:4.3671028 5:3.6380737 6:5.6287963 
0.5 1:0.20057363 2:0.3712613 3:0.19778985 4:-1.2806996 5:-1.2686171 6:-1.3386774 
0.49848819528909938 1:1.3998931 2:1.7233293 3:1.2552136 4:1.217871 5:0.97730719 6:0.64142461 
0.5 1:0.6973679 2:0.50927322 3:0.31761124 4:-0.22598474 5:-0.15366458 6:-0.37820186 
0.5 1:-0.03226952 2:-0.093633152 3:-0.16048305 4:-0.52180407 5:-0.46213295 6:-0.55714709 
0.18391920253860738 1:0.26528782 2:0.37709595 3:0.37048591 4:1.7016679 5:2.9613214 6:4.801155 
0.5 1:0.12261561 2:-0.31149001 3:0.29448292 4:-0.60398047 5:-0.74164048 6:-0.68778182 
0.11600150329140003 1:0.251141 2:-0.76971202 3:-0.050741987 4:1.2537398 5:1.2375601 6:-2.3428288 
0.5 1:-0.62731648 2:-0.72808853 3:-0.56560472 4:1.177136 5:0.82611113 6:1.1664773 
0.5 1:0.66335533 2:0.81245062 3:1.3909879 4:-0.67406979 5:-0.15153395 6:-0.070821397 
0.053078288195643475 1:-0.38615078 2:-0.10383631 3:-0.2212297 4:4.9799331 5:4.7863273 6:4.3980176 
0.368447338533197 1:0.0090647865 2:0.99018305 3:0.28793455 4:-0.82107685 5:-0.20061743 6:-0.51048622 
0.5 1:0.98504505 2:0.63591505 3:0.43046626 4:-0.19129328 5:-0.24749136 6:-0.22840003 
0.5 1:-0.37439688 2:-0.029863417 3:0.38358266 4:-0.6244657 5:-0.72041306 6:-0.38857094 
0.28372237767158082 1:0.29606469 2:0.70540723 3:0.85611083 4:-0.93959295 5:-0.98666332 6:-0.010020866 
0.5 1:-0.50980003 2:-0.44469209 3:-0.36967586 4:0.05649171 5:0.03596179 6:0.25407653 
0.5 1:-0.52719009 2:-0.084222908 3:-0.38087776 4:-0.50131884 5:-0.25490912 6:-0.017012142 
0.2026573636802447 1:2.2450152 2:2.397381 3:2.4893042 4:-0.15840702 5:-0.27226984 6:0.19178348 
0.25468209235470651 1:0.32037013 2:0.25718641 3:0.55404948 4:0.71217615 5:0.0309114 6:0.062169945 
0.5 1:-0.027032186 2:-0.083542199 3:-0.47020739 4:-0.13462531 5:-0.28552711 6:0.092413103 
0.26303133094848008 1:1.2595536 2:0.87184437 3:1.2101412 4:0.97683595 5:0.9844093 6:0.39555167 
0.25361976140802445 1:0.52926151 2:0.48735588 3:0.74430076 4:-0.050722193 5:-0.25325196 6:0.20175979 
0.11946844106477962 1:0.87691215 2:0.69351352 3:1.5974011 4:2.1982582 5:2.0128739 6:0.96270907 
0.12254263441412416 1:-0.073919873 2:-0.15365525 3:0.076505536 4:2.8899684 5:4.4460573 6:4.118288 
0.18326261693411128 1:3.2863117 2:3.1024012 3:1.3094815 4:0.11700556 5:1.1217168 6:2.8081701 
0.29486378912748595 1:0.084313843 2:0.33064316 3:0.23742844 4:0.64828734 5:1.6152346 6:2.0619104 
0.5 1:0.20064888 2:0.42900938 3:-0.053709656 4:1.1348313 5:1.234956 6:1.8648978 
0.5 1:0.38636355 2:1.8213215 3:1.948645 4:-0.82037046 5:-0.91958783 6:-0.48252111 
0.5 1:-0.2253887 2:-0.20052694 3:-0.3135688 4:0.4001884 5:0.40487702 6:0.32595313 
0.5 1:-0.084891185 2:-0.095361106 3:-0.31232182 4:0.32821538 5:0.32643814 6:0.24425732 
0.17483143876113466 1:-0.040185721 2:0.18417848 3:0.43736296 4:6.4689976 5:6.8765576 6:6.1323253 
0.1759332212704742 1:0.72385557 2:2.6827552 3:3.4280211 4:1.1949527 5:2.1473406 6:0.31636958 
0.17780409318121898 1:-0.49087489 2:-0.19472969 3:1.2015726 4:4.2994466 5:3.2219689 6:3.5929997 
0.12328192588230842 1:1.648817 2:3.0060547 3:1.9014827 4:-0.14961642 5:1.0330982 6:1.6612082 
0.5 1:-0.77947007 2:-0.47879487 3:-0.72095384 4:0.42608927 5:0.21327784 6:0.36947185 
0.14164596198330331 1:1.6938159 2:1.0683524 3:3.3331393 4:-0.70711302 5:-0.8286808 6:-0.78990158 
0.19038746802473516 1:-0.51690354 2:10.185891 3:4.3275174 4:0.59632862 5:-0.49930066 6:0.74817903 
0.5 1:0.27943465 2:0.25987933 3:-0.046137224 4:0.34226464 5:-0.0053882801 6:0.014095107 
0.5 1:-0.047560128 2:0.062847679 3:-0.23518332 4:-0.10417217 5:-0.17347158 6:-0.20876162 
0.5 1:2.005648 2:1.4865771 3:1.4073589 4:-0.74039171 5:-0.78733073 6:-0.50655853 
0.5 1:-0.13775365 2:-0.39815701 3:-0.044534961 4:-0.17002317 5:0.11732042 6:-0.15094613 
0.5 1:0.046012073 2:0.28089903 3:0.29134806 4:-0.7066421 5:-0.63408295 6:-0.5381371 
0.35472219042523806 1:0.84590954 2:1.3875377 3:0.64112897 4:-0.29034448 5:-0.19390988 6:-0.44662209 
0.17118863060553402 1:-0.1397327 2:0.43297395 3:1.0999334 4:3.6158206 5:2.2533988 6:3.0695182 
0.42177956419093926 1:1.126438 2:1.4093054 3:1.2409325 4:-0.088160723 5:-0.2687977 6:-0.72399506 
0.2798593124378429 1:0.68164085 2:0.70877338 3:1.2282538 4:0.89740661 5:0.28887586 6:1.1330134 
0.5 1:0.30945902 2:0.45174956 3:0.57787443 4:0.76805924 5:0.382387 6:0.90128011 
0.5 1:2.0492925 2:1.4187306 3:1.2691463 4:-0.456424 5:-0.66036077 6:-0.67953369 
0.19080988264778914 1:1.3003386 2:21.354459 3:14.729267 4:0.38268569 5:0.42539423 6:-0.62643141 
0.5 1:-0.64690381 2:-0.16904227 3:-0.33917017 4:-1.3481203 5:-1.3620494 6:-1.4657772 
0.5 1:-0.35812803 2:-0.50947914 3:-0.40833219 4:0.79396011 5:0.99372095 6:1.0455832 
0.093961711963558542 1:0.07972365 2:0.13667844 3:-0.72267523 4:1.3772006 5:2.5195701 6:2.1020513 
0.5 1:-0.27816086 2:-0.57950243 3:-0.59902235 4:-0.62281746 5:-0.39734591 6:-0.35377167 
0.48510912420474883 1:1.388681 2:0.94515151 3:0.70487116 4:0.90863032 5:0.48268459 6:1.0550096 
0.5 1:-0.075236731 2:-0.18990488 3:-0.067774736 4:-0.94602892 5:-0.39987111 6:0.28235585 
